1099 100
the 0.090192 0.17646 0.04317 0.2375 -0.15735 -0.065793 0.057705 -0.31785 0.073559 0.12743 -0.035953 0.15191 -0.15557 -0.031583 0.21485 -0.20559 0.10819 -0.25212 -0.32919 -0.035447 0.072129 0.22897 0.092412 -0.22285 -0.062625 0.21244 -0.093673 0.0042092 0.12564 -0.020804 -0.099646 0.19425 0.041468 0.048988 0.013985 -0.24554 0.036405 -0.0063719 -0.081967 0.21463 -0.18116 0.093877 0.25955 -0.21252 0.089838 0.0052294 -0.057331 -0.16232 0.24821 -0.276 -0.0657 0.20975 -0.39367 0.0071929 -0.29262 -0.1191 -0.018934 -0.12681 0.16785 -0.15096 -0.015554 -0.12596 -0.0035483 0.10667 -0.12143 0.13421 -0.27846 0.028005 0.02043 0.072103 0.1385 0.020899 0.2196 -0.22909 0.069565 0.29584 0.14278 -0.069332 -0.30474 -0.31087 0.14465 0.16281 -0.18458 -0.03037 -0.42728 0.14107 0.35382 -0.39154 0.19781 -0.094583 0.16851 -0.05468 0.045568 -0.099736 -0.44026 -0.18164 -0.088544 0.017924 -0.10005 -0.066252 
</s> 0.0011517 0.0012221 0.0018081 0.00097073 -0.0022813 0.0018668 0.0002802 0.00065644 0.0035347 -0.0010689 -0.00079603 0.0018978 0.0018305 0.0024189 -0.0012276 -2.9035e-05 0.0019739 0.00046056 0.00028531 0.0023654 0.0010049 -6.034e-05 0.0011603 -0.00033334 -0.0010613 -0.0044639 -0.00047464 0.0033507 -0.00070425 0.00046006 0.00052489 -0.0013964 -0.0023196 0.0006111 0.0012127 -0.00069995 3.1293e-05 -0.0011251 0.00099557 -0.0012775 0.001032 -0.0015102 -0.0033613 -0.0023996 0.00062152 0.00059243 0.0034275 -0.00076743 3.0744e-05 0.002441 0.0025352 0.0020781 -0.00020857 0.0016688 0.00010516 -0.00068283 -0.0043779 -0.00029017 0.0027749 -0.00101 -0.00054969 -0.0014503 0.0030161 0.00046693 0.0011345 -0.0014136 0.00032249 -0.0016523 0.00068292 -0.0027068 0.00063468 0.0020849 0.0038759 -0.0016175 0.0014464 -0.0016257 0.0013326 6.1718e-05 0.0020019 -0.0014131 -0.00092872 0.00073645 0.0020746 -2.9613e-05 0.00022961 0.0034148 -0.00077395 -0.0011867 -0.0011591 0.0011767 -0.00040988 -0.0036507 0.0011546 -0.0033436 0.0007432 9.8274e-05 0.0010433 0.00019491 -0.0015351 -0.0006407 
coral 0.20279 -0.058075 -0.043916 0.19818 -0.0085934 0.11156 0.0031424 -0.2229 -0.18248 -0.030743 -0.10556 0.13524 -0.21448 0.25819 0.025816 0.036521 0.0091777 -0.16885 -0.36041 -0.084584 0.31992 0.34876 0.11467 -0.38028 -0.092378 -0.020637 0.11961 -0.021828 0.15748 0.032048 0.012346 0.17255 0.013616 0.16699 -0.046277 -0.1941 0.031294 -0.050517 -0.026812 0.1649 -0.16776 0.10398 0.087794 -0.023562 0.14205 0.13427 -0.056167 -0.019335 0.21994 -0.091402 -0.23342 -0.015533 -0.18917 -0.23203 0.13923 0.024 0.17115 -0.034946 0.21731 -0.18694 -0.023464 -0.047723 -0.055215 0.10948 -0.1881 -0.08685 -0.13473 -0.091788 -0.10623 -0.039015 0.25775 -0.04415 0.36999 0.0088922 0.16929 0.22444 -0.043558 0.23437 -0.40073 -0.22667 -0.043986 -0.047179 -0.24231 0.12962 -0.071601 -0.24416 0.11511 -0.41218 0.063215 -0.020913 0.24236 -0.14918 0.071393 -0.28303 -0.11033 -0.28042 0.20602 -0.18406 -0.31677 0.36443 
to 0.13643 -0.039954 0.24686 0.18326 -0.12557 0.10891 -0.26515 -0.16995 0.091589 -0.0915 0.10984 0.26673 -0.086263 -0.11516 0.11552 0.12893 -0.10817 -0.40581 -0.34732 -0.13781 0.18908 0.46437 -0.080203 -0.21277 -0.29924 0.0095317 -0.061752 0.39929 0.042817 -0.035093 0.10361 0.10104 -0.14496 -0.061154 0.10728 -0.24106 0.32134 0.00577 -0.22709 0.019991 -0.25522 0.1768 0.010954 -0.18512 0.026584 -0.10863 0.21775 0.001137 0.37722 -0.36084 -0.23895 0.27979 -0.41521 -0.15088 -0.24426 -0.16397 0.22186 -0.064017 0.19844 -0.07667 0.36169 -0.21438 0.023853 0.24204 0.092154 0.13944 -0.10858 -0.18511 -0.048262 -0.090404 0.068767 0.25292 0.46513 -0.21999 0.17309 0.15654 0.20525 0.084086 -0.055607 -0.18119 0.29439 0.21039 0.0059033 -0.11611 -0.089994 0.11879 0.2145 -0.25912 0.21432 0.027988 0.11188 -0.071976 0.13168 0.056703 -0.66284 -0.11311 0.046894 0.032339 0.15002 -0.14199 
of 0.3292 -0.067853 0.078137 0.19685 -0.19303 -0.033153 0.056087 -0.17779 -0.016449 -0.25059 -0.0641 0.26164 0.010762 0.22822 0.16755 -0.068428 0.069344 -0.22817 -0.37137 -0.13295 0.19454 0.38746 -0.17935 -0.28716 -0.21907 -0.17682 -0.006548 -0.061197 0.091001 0.060473 0.010001 0.0030974 0.15983 -0.10438 0.1192 -0.2831 -0.026977 0.029663 -0.048159 -0.051143 -0.15867 0.034523 0.02889 -0.052814 0.10291 0.046818 -0.11695 -0.13523 0.068298 -0.33892 -0.12841 -0.12727 -0.41374 0.11086 -0.16871 -0.049535 -0.06789 0.073129 0.14796 -0.24479 0.070144 -0.30338 -0.1262 0.27272 -0.18488 0.00036816 -0.37302 -0.25256 -0.1054 0.1668 0.054915 0.019641 0.23877 -0.11417 -0.011245 0.3548 -0.14562 0.195 -0.46844 -0.16095 -0.12849 0.092919 -0.10558 0.15474 -0.25938 -0.036349 0.065944 -0.27939 0.26821 -0.10479 0.20126 -0.20696 0.17242 -0.30475 -0.4425 -0.18237 0.031249 -0.164 -0.45235 -0.025596 
in 0.15323 0.050332 -0.010857 0.021564 -0.065751 -0.066099 0.073159 -0.34246 -0.22277 -0.11571 -0.058478 0.29358 -0.038459 0.035128 0.31101 0.1626 0.14392 -0.23544 -0.41963 0.0021838 0.10333 0.40654 -0.085495 -0.37583 -0.42002 -0.16133 -0.12185 -0.033669 0.30387 0.0099047 0.058141 0.17794 0.065803 0.22979 -0.22699 -0.15214 0.16186 0.049591 -0.11863 0.034148 -0.10282 0.053548 -0.07022 -0.10341 0.20823 -0.3558 0.023574 -0.24627 0.17575 -0.09218 -0.22028 -0.084295 -0.35934 -0.15306 -0.21562 -0.038251 0.27868 -0.12087 0.063241 -0.34874 -0.033537 -0.18149 0.11121 0.17138 -0.1832 -0.0097636 -0.13703 -0.044381 -0.094891 0.13589 0.021173 0.086397 0.2999 -0.16292 0.20094 0.32054 0.07923 -0.0064099 -0.43031 -0.25131 0.045086 0.21252 -0.13794 0.27136 -0.41148 -0.11218 0.26994 -0.22858 0.226 -0.074002 0.26566 -0.1888 0.11242 0.060773 -0.27117 -0.21411 -0.10951 -0.025459 -0.039857 -0.075656 
infrequent 0.062722 0.11963 -0.18933 0.18501 0.049264 0.14129 -0.20673 -0.21336 -0.039307 0.082079 -0.042544 -0.11668 -0.082252 0.0075853 0.099508 -0.056513 0.021811 -0.18791 0.0094651 -0.27115 0.0080272 0.18798 0.081206 -0.49707 -0.09912 -0.066321 0.071999 -0.024213 0.069452 0.060691 0.12196 0.12792 0.036079 0.18757 -0.17386 -0.3444 0.055875 0.13136 -0.054282 0.070151 -0.030818 -0.083537 0.076864 -0.12931 0.14743 0.032778 0.094605 -0.12371 0.35682 -0.14432 -0.094901 0.17741 -0.26405 -0.136 -0.094774 -0.078465 -0.025467 -0.078332 0.19393 0.092135 -0.054961 -0.020127 -0.12911 0.037463 -0.16398 0.024073 -0.19475 -0.0329 -0.029536 0.11086 -0.028169 -0.037962 0.12662 -0.0048326 0.14515 -0.0059256 0.030849 0.10033 -0.10241 -0.15807 0.057446 0.18318 -0.11893 0.075671 -0.16894 -0.12317 0.37115 -0.1881 -0.11017 -0.31786 0.11202 0.022339 0.11568 -0.10684 -0.25151 -0.25245 -0.14842 -0.023218 -0.24616 0.042556 
is 0.052967 -0.11004 -0.038557 0.23965 0.062811 -0.087212 -0.21772 -0.20903 -0.11966 0.047207 -0.18161 0.1977 -0.18011 0.23518 0.17438 0.039102 0.079565 -0.17515 -0.42748 -0.092099 0.2894 0.59742 0.026991 -0.40785 -0.31958 -0.098258 0.14924 -0.19967 0.1941 -0.030766 -0.043398 0.022019 -0.016618 0.22788 -0.064542 -0.21288 0.047961 -0.13758 -0.077215 0.086302 -0.081192 -0.092942 -0.077094 -0.076947 0.10725 0.076246 -0.19166 0.10421 0.17083 -0.12799 -0.22442 0.017532 -0.14217 -0.091648 0.13278 -0.047948 0.15171 -0.089017 0.22663 -0.15414 0.049964 -0.0020774 0.081727 0.0007369 -0.12915 -0.098913 0.016758 -0.15174 -0.11989 -0.15605 0.17917 -0.16909 0.27355 -0.026087 0.074525 0.28294 -0.035342 0.017048 -0.42572 -0.1617 -0.073253 -0.048952 -0.25183 0.14716 -0.15626 -0.33032 -0.10457 -0.30782 0.15758 -0.042245 0.30031 -0.03008 0.13502 -0.32112 -0.29512 -0.21917 0.02478 -0.19339 -0.24403 0.23932 
bleaching 0.16229 -0.029049 -0.065888 0.067436 -0.02516 0.062422 0.081857 -0.19021 -0.16898 0.090549 -0.1328 0.039214 -0.087496 0.17256 0.32982 0.18345 0.30067 -0.208 -0.49771 -0.18538 0.18794 0.52907 0.040945 -0.42842 -0.3239 0.085493 0.14559 -0.00089747 0.14512 -0.071584 -0.21239 0.088471 0.03323 0.38075 -0.13557 -0.20504 0.10216 -0.011578 -0.25012 0.42994 -0.29847 -0.076643 0.18405 0.0014077 0.082679 -0.013585 -0.16983 0.046736 0.24305 0.11398 -0.25057 0.2807 -0.19558 -0.15274 0.22196 0.19837 0.29334 -0.24533 0.22199 -0.35719 -0.39735 0.024454 -0.0041966 -0.094365 -0.23053 -0.058527 -0.20869 -0.0096339 -0.054416 -0.14535 0.48654 -0.17051 0.27289 -0.18742 0.013162 0.39035 0.067275 0.13543 -0.42468 -0.14858 -0.043172 0.20866 -0.18102 0.30512 -0.19413 -0.38066 0.045339 -0.50086 -0.029596 -0.22446 0.1462 -0.1476 0.1055 -0.29785 -0.21162 -0.29109 0.071084 -0.046623 -0.40584 0.31989 
and 0.28918 0.15603 -0.032293 0.27795 -0.088244 0.048164 -0.17916 -0.2673 -0.063558 0.33896 -0.18719 0.060907 -0.17699 0.10377 -0.02108 0.064712 -0.079574 -0.087068 -0.18846 -0.11077 0.20029 0.30513 0.022786 -0.35526 -0.16329 0.084095 0.10992 0.072786 0.059933 -0.012184 0.031784 0.096859 -0.095787 0.097415 -0.053909 -0.10809 0.068727 0.046776 -0.047221 0.1348 -0.18863 0.040023 0.21692 -0.066546 0.24044 0.058866 0.10805 0.0254 0.294 -0.151 0.025736 0.24503 -0.46195 -0.19502 0.011985 -0.05812 -0.0063032 0.030088 0.24655 0.10466 -0.12679 -0.30074 -0.16895 -0.085411 -0.16076 0.13456 0.055522 0.093994 -0.050337 -0.032389 0.10365 -0.093133 0.1441 -0.14387 0.20757 -0.06329 -0.06778 0.14691 -0.036957 -0.39238 0.11233 0.055931 -0.20102 0.12018 -0.097485 -0.052783 0.2355 -0.18722 0.16867 -0.18897 0.13351 0.022054 -0.10377 -0.023318 -0.29653 -0.20293 0.028899 0.0069648 -0.17476 0.12849 
a 0.23905 -0.082311 -0.28522 0.34983 -0.050827 0.22572 -0.23573 -0.1385 -0.11007 -0.094543 -0.09292 -0.026912 -0.057916 0.17085 -0.056083 0.0072545 -0.093052 -0.33129 -0.014668 -0.43694 0.19468 0.21706 0.021178 -0.54631 -0.0026875 -0.314 0.25194 -0.090633 -0.1897 -0.027285 0.16625 0.067455 0.10601 0.1421 -0.12327 -0.29348 0.12166 -0.0013059 0.20558 -0.20798 -0.10756 -0.060357 -0.18944 0.064441 0.30879 -0.019423 0.0031685 0.1999 0.34618 -0.031173 -0.39462 -0.13236 -0.14152 -0.13134 0.26903 -0.037379 0.12278 0.0042833 0.38006 -0.1016 -0.029412 0.29884 -0.12243 0.3968 -0.26599 -0.077264 0.03794 0.034192 -0.091692 0.059276 0.1357 -0.051794 0.41836 0.27607 0.14679 0.041143 -0.35514 0.48459 -0.21184 -0.027901 -0.2392 0.17523 -0.50025 0.25333 0.34508 -0.29722 -0.055181 -0.020449 -0.088509 -0.32915 0.13449 -0.055349 -0.062359 -0.37192 -0.24497 -0.60912 0.23742 -0.17393 -0.32076 0.45578 
water -0.027292 -0.022766 0.18652 0.39824 -0.011279 -0.33768 -0.43685 -0.32171 -0.031971 -0.058688 -0.068553 0.099846 -0.039619 -0.31632 0.41489 -0.031611 0.051983 -0.37996 -0.45662 0.027442 -0.1213 0.48195 0.1443 -0.32404 -0.33634 -0.15289 0.11595 -0.079919 0.028245 -0.15047 -0.05004 0.11777 -0.0027889 0.36993 -0.063708 -0.484 0.19544 -0.020727 -0.085867 -0.16757 -0.19847 -0.070617 -0.15341 -0.1818 0.072354 -0.27472 -0.013853 -0.16631 0.43393 -0.023865 -0.0011509 0.40602 -0.37891 -0.19299 -0.48135 -0.33974 0.010276 -0.21359 0.30277 0.099956 0.23776 0.11989 0.027915 0.05821 0.0082464 0.10378 -0.19647 -0.1746 -0.20629 0.054332 -0.28015 0.24979 0.32341 -0.12094 0.0015705 0.40615 0.39312 -0.24091 0.057303 -0.29677 0.13888 0.27584 -0.14562 -0.10344 -0.45436 -0.03508 0.13005 -0.32303 0.12006 -0.22036 0.24104 0.068451 0.068633 -0.17266 -0.75689 -0.026007 -0.34883 0.031844 0.047712 -0.34317 
that -0.033691 -0.0026144 0.15713 0.02901 0.1119 0.032029 -0.17167 -0.33665 -0.098668 0.030895 -0.11846 0.029055 -0.24038 0.051896 0.070812 0.055058 0.12571 -0.1778 -0.45307 -0.033899 0.25273 0.30996 0.14018 -0.3826 -0.25906 0.02955 -0.079954 0.11242 0.3127 0.026053 0.040553 0.17868 -0.11528 0.32155 -0.14199 -0.24632 -0.018058 -0.093452 -0.20951 0.24082 -0.20332 0.16865 0.17584 -0.063194 0.11941 -0.077172 0.099592 -0.11295 0.23112 -0.03445 -0.084265 0.15656 -0.2305 -0.3418 0.061873 0.051416 0.20077 -0.026568 0.16307 -0.14409 -0.11552 -0.082795 0.040833 0.015088 -0.1384 -0.036405 -0.17799 0.035868 -0.096131 -0.018239 0.14546 0.098836 0.33545 -0.035278 0.10375 0.3763 0.14763 0.13751 -0.35353 -0.28192 0.14288 0.031502 -0.084671 0.037219 -0.45538 -0.32972 0.30294 -0.30857 0.068406 -0.084523 0.20344 -0.1268 0.092521 -0.0051913 -0.26728 -0.18148 -0.014154 -0.096507 -0.17568 0.018852 
it 0.092369 0.079017 -0.16568 0.30505 -0.13366 0.018041 -0.17514 -0.29732 0.072714 0.12581 -0.1472 0.025807 -0.33159 0.028326 0.0086229 -0.016812 -0.014669 -0.19279 -0.13242 -0.15048 0.15452 0.25277 -0.0082523 -0.4102 -0.058792 -0.036979 0.11576 -0.071291 0.066595 -0.0072938 0.016405 0.11643 0.043312 0.14908 0.0050649 -0.32285 0.11632 -0.026013 0.092941 0.17611 -0.044893 0.019092 0.074451 -0.079538 0.23578 0.28257 -0.078992 0.075269 0.23763 -0.29694 -0.066761 0.1418 -0.30316 -0.027278 0.054175 -0.11735 -0.023295 -0.13083 0.24615 -0.024416 0.0031018 0.010421 -0.09083 0.076769 -0.15499 0.12128 -0.15464 0.033032 -0.0053746 -0.084492 0.16732 -0.067046 0.25698 -0.022622 0.16752 0.019854 -0.072146 0.12864 -0.17335 -0.25044 0.072642 -0.019795 -0.40083 -0.0070645 0.059866 0.069356 0.14857 -0.17509 0.11913 0.0064221 0.16885 -0.10318 -0.01835 -0.088494 -0.39571 -0.33326 -0.08687 -0.14202 -0.15518 0.23699 
are 0.041612 0.036353 0.098489 -0.065049 0.26512 0.13682 -0.040123 -0.22453 -0.11634 0.01858 0.036893 0.19259 -0.090321 -0.11254 0.11112 -0.14345 0.08581 -0.21902 -0.29948 -0.12706 0.11099 0.11647 0.1224 -0.21206 -0.17378 0.12334 -0.052482 -0.0052279 0.34595 -0.059882 0.17769 0.18427 -0.051352 0.25282 -0.15077 -0.20851 -0.057016 -0.22668 -0.37192 0.20772 -0.10088 0.052325 0.085722 -0.29459 0.069321 -0.13638 0.12365 -0.10231 0.51889 0.036358 -0.39226 0.070725 -0.11847 -0.42217 -0.060946 -0.056607 0.35592 -0.26512 0.23858 -0.043511 0.0018589 -0.14737 0.057934 0.1138 -0.13219 -0.14391 -0.19364 -0.14093 -0.046189 0.17673 0.14586 0.013941 0.26735 0.016946 0.099713 0.17837 0.2364 -0.1445 -0.30106 -0.22542 0.083472 0.20701 0.14192 0.13757 -0.31877 -0.39242 0.34542 -0.22928 -0.0089147 -0.40116 0.25048 -0.13339 0.27951 -0.087228 -0.27862 -0.13943 0.031494 -0.061161 -0.26893 0.065121 
corals 0.21107 -0.050516 0.26086 0.10031 -0.079237 0.15945 -0.044708 -0.22418 -0.017215 -0.2167 -0.061959 0.27355 -0.27406 0.17739 0.057689 -0.077209 -0.040763 -0.13044 -0.37375 0.012979 0.37491 0.21496 0.059409 -0.20648 -0.07195 -0.17584 0.0055572 0.29565 0.16619 0.10605 0.059872 0.26095 -0.016998 0.021276 0.042952 -0.19796 0.073956 -0.034454 -0.063936 0.059133 -0.26837 0.30485 0.12695 -0.056439 0.17828 0.14853 -0.047866 -0.10342 0.30726 -0.32053 -0.20228 -0.0091828 -0.31892 -0.10282 -0.074819 0.0067093 0.10298 0.057598 0.22935 -0.20997 0.10403 -0.21932 -0.012415 0.33299 -0.13233 -0.042923 -0.29531 -0.11551 -0.01535 -0.084702 0.15523 0.1063 0.45714 -0.00093984 0.19251 0.33664 -0.043388 0.22618 -0.38968 -0.29408 -0.022908 -0.0060946 -0.21105 0.059908 -0.14307 -0.13277 0.33561 -0.51472 0.20998 0.045207 0.22008 -0.20689 0.1354 -0.17643 -0.23166 -0.26465 0.21401 -0.25834 -0.26664 0.027285 
algae 0.090217 0.046731 0.18945 0.14814 -0.35401 0.37316 -0.22332 -0.47523 0.086435 0.0060433 -0.25584 0.12398 -0.545 0.026797 -0.081375 -0.19849 0.077406 -0.19373 -0.27086 -0.37798 0.28341 0.21513 -0.15181 -0.20289 0.18402 0.047281 0.00037096 0.38546 0.27722 0.16747 0.14171 0.3605 0.0098097 0.038926 0.13143 -0.51756 0.055742 0.077783 0.044402 0.32608 -0.30701 0.54689 0.2517 -0.10646 0.41326 0.38565 0.17216 0.24129 0.31949 -0.51166 -0.015227 0.0050297 -0.47464 -0.044846 0.17905 -0.083356 -0.089201 0.14791 0.352 -0.04099 0.061173 -0.1241 0.10287 0.33594 -0.19601 0.23095 -0.13806 0.22638 0.088229 -0.16055 0.3678 0.10454 0.58039 0.075862 0.20964 0.15467 -0.23807 0.39892 -0.39512 -0.36483 0.052589 -0.05438 -0.35348 -0.15207 -0.18113 0.11471 0.19635 -0.22353 0.36823 0.19669 0.30941 -0.21358 -0.091625 -0.16645 -0.36227 -0.44193 0.21618 -0.23043 -0.11297 0.26321 
winds 0.091578 -0.13602 -0.23171 0.19066 0.11633 -0.0028304 -0.24019 -0.23348 -0.16122 0.15203 -0.026656 0.018916 0.14732 -0.17395 0.40469 0.33118 0.15726 -0.43845 -0.45244 -0.36 -0.20689 0.83865 0.063316 -0.68397 -0.51944 0.25875 0.092618 0.084368 0.015973 -0.31585 -0.20671 -0.25138 0.015962 0.2839 -0.21512 -0.58097 0.22502 0.13905 -0.36433 0.43438 0.07508 -0.23673 0.081494 -0.13578 -0.090284 0.0022407 0.336 -0.2184 0.3786 -0.097721 -0.10087 0.55805 -0.38569 -0.082101 -0.091575 -0.16636 0.30669 -0.24864 0.18682 -0.031411 -0.091339 -0.059494 0.046031 -0.31247 0.076552 0.049622 -0.20617 -0.11186 -0.082722 0.12284 0.17378 -0.076876 0.11891 -0.3071 0.03826 0.039224 0.40973 -0.089018 -0.051752 -0.077385 0.39527 0.36499 0.14987 -0.058987 -0.23404 -0.015882 0.072135 -0.29674 -0.24126 -0.34162 0.19034 0.095597 0.19912 -0.31792 -0.61849 0.067649 -0.39721 0.096383 0.021619 0.13713 
trade 0.062757 -0.19028 -0.18855 0.12757 0.1779 0.053115 -0.27991 -0.30723 -0.12818 0.10535 -0.14365 -0.022546 0.11693 -0.16205 0.34076 0.31705 0.19491 -0.33947 -0.46787 -0.38397 -0.19883 0.72733 0.071735 -0.72798 -0.5238 0.17612 0.15819 0.10977 0.020659 -0.30445 -0.27104 -0.2514 -0.0010011 0.28921 -0.29899 -0.57895 0.16671 0.14142 -0.25087 0.43154 0.060688 -0.19997 0.1727 0.0035269 -0.021346 0.047204 0.43203 -0.28571 0.35724 -0.066927 -0.0065066 0.54007 -0.49759 0.0047527 -0.043589 -0.11575 0.24969 -0.12353 0.20615 0.016843 -0.1818 -0.08698 0.071682 -0.28021 0.075162 0.035238 -0.26663 -0.021589 -0.029121 0.1004 0.13438 -0.10081 0.066595 -0.21246 0.009973 0.055761 0.25463 -0.031862 -0.065968 -0.13982 0.37419 0.30716 0.10475 -0.065569 -0.29014 -0.07989 0.08642 -0.24767 -0.27503 -0.30994 0.17796 0.004289 0.14563 -0.29715 -0.55803 -0.010676 -0.41932 0.017133 -0.069982 0.11022 
can 0.34184 0.066837 0.098201 0.25518 0.20247 0.052275 -0.016486 -0.29294 -0.22524 0.16635 -0.21237 0.22205 -0.3013 0.1608 0.050884 -0.13556 0.17928 -0.30289 -0.49845 0.092065 0.30818 0.40661 0.14827 -0.31197 -0.3415 -0.0091756 -0.044239 0.11992 0.069914 -0.040092 -0.039056 0.13199 -0.085099 0.016162 0.0034894 -0.19938 -0.28182 -0.11727 -0.011254 0.25282 -0.014518 0.36916 0.070071 -0.12338 0.065053 0.23008 0.035775 -0.17134 0.31799 -0.00027592 -0.023219 0.25452 -0.23083 -0.39199 0.24265 -0.081403 0.0058476 0.066775 0.4815 -0.051974 0.053175 -0.11324 0.039745 0.040947 0.063425 -0.097713 -0.12088 0.21825 -0.13462 0.025051 -0.10086 -0.0053112 0.23752 0.049834 0.19166 0.21479 0.090557 0.024302 -0.19806 -0.26048 0.13048 -0.04083 -0.17187 0.069031 0.010409 -0.2223 0.18019 -0.4146 0.030132 -0.095611 0.39479 0.16852 -0.0046781 -0.34342 -0.16076 -0.040359 0.092961 -0.23177 0.02263 0.27248 
this 0.23366 0.00093724 0.088063 0.24008 -0.05287 -0.033628 -0.13197 -0.21465 0.008609 0.069184 -0.12675 0.055873 -0.15003 0.068653 0.14256 -0.032066 -0.0069142 -0.13329 -0.4493 0.015451 0.15122 0.31636 0.068653 -0.23141 -0.23109 0.049843 0.11711 0.081292 0.06299 0.0027882 -0.042727 0.083363 -0.031494 0.15569 -0.0075748 -0.090936 0.13381 -0.11243 -0.079626 0.032541 -0.25203 -0.041102 0.12178 -0.071102 0.16403 0.052981 -0.15598 -0.088127 0.35037 -0.1064 -0.17044 0.20078 -0.37863 -0.10333 -0.073659 -0.022044 0.12014 -0.14405 0.21731 -0.092496 -0.035706 -0.15424 -0.081848 0.14624 -0.15937 -0.047168 -0.18874 -0.14811 -0.036366 -0.1262 0.21097 -0.028747 0.29566 -0.084814 0.17279 0.3168 0.069657 -0.0032162 -0.14295 -0.26639 0.0083933 0.049475 -0.18467 0.087562 -0.11441 -0.048581 0.24023 -0.39949 0.14769 -0.010655 0.095937 -0.20092 -0.018 -0.075556 -0.32902 -0.07504 0.049221 -0.095474 -0.25665 0.058251 
temperature -0.043028 -0.1935 -0.02506 0.32833 -0.082157 -0.18281 -0.37776 -0.13515 -0.021742 -0.14586 -0.10449 0.23754 -0.08051 -0.14991 0.4096 0.21573 0.022595 -0.39259 -0.51124 0.061791 0.059293 0.66497 0.1885 -0.51024 -0.55105 -0.28593 0.05524 0.06046 0.018192 -0.094768 -0.21253 -0.027336 0.031147 0.26868 -0.10459 -0.52589 0.22644 0.07101 -0.015758 0.027815 0.02411 -0.11851 -0.15651 -0.15026 0.12498 -0.01267 -0.24984 -0.24066 0.21485 -0.28654 0.031637 0.40409 -0.19938 0.091618 -0.3286 -0.25639 0.074388 -0.1331 0.084631 -0.3353 -0.028606 0.091407 0.15522 -0.027498 0.077717 0.08062 -0.19191 -0.074521 -0.13552 -0.20603 -0.0018669 -0.015167 0.32249 -0.23919 0.078389 0.40561 0.26113 -0.011223 -0.26181 -0.032161 0.19468 0.2167 -0.36302 0.014485 -0.38847 0.054814 0.19851 -0.50181 0.0074345 -0.088337 0.2444 0.085183 0.24071 -0.36811 -0.54553 -0.093448 -0.21215 -0.14644 -0.092066 -0.21936 
because 0.033984 0.11406 0.26792 0.16757 -0.1038 -0.04734 -0.28892 -0.21513 0.040267 0.0072253 -0.22709 0.20659 -0.28601 -0.056331 0.091409 -0.032241 -0.045451 -0.24346 -0.38113 -0.069215 0.2626 0.40408 0.071356 -0.14672 -0.17176 -0.013869 0.0047738 0.17892 0.11994 -0.024799 -0.05669 0.14721 -0.037693 0.15763 0.0047547 -0.42379 0.045717 -0.10557 -0.028723 0.084117 -0.12699 0.16526 -0.13173 -0.16358 0.2388 0.041955 -0.074843 0.11537 0.28679 -0.20633 -0.027382 0.20114 -0.2748 -0.081959 -0.10867 -0.14756 0.089703 -0.045681 0.27569 0.0010283 0.13209 -0.009031 0.13215 0.085127 -0.040575 0.076608 -0.041768 -0.081544 -0.12544 -0.18514 0.15742 0.10053 0.44207 -0.01595 0.21163 0.26962 0.08687 0.082448 -0.1991 -0.26296 0.1673 -0.049555 -0.18976 0.018812 -0.28488 -0.1047 0.14859 -0.24092 0.30439 -0.028752 0.35774 -0.044248 0.064742 -0.24127 -0.44168 -0.010985 0.052852 -0.075127 0.0019955 0.014171 
when 0.11296 0.079611 -0.12694 0.17621 -0.03483 -0.061636 -0.1377 -0.13412 0.062003 0.060225 -0.016465 0.1109 -0.21184 0.23457 0.21757 0.17897 0.053981 -0.34375 -0.096842 -0.15751 0.19265 0.57879 -0.021336 -0.4607 -0.26037 -0.17668 0.055581 -0.048508 0.027527 -0.045667 -0.094298 -0.032418 0.046811 0.11747 0.052739 -0.36096 0.21832 0.12994 -0.1012 0.21111 -0.10307 -0.083153 -0.049844 -0.071976 0.029534 0.19443 -0.0036399 0.13269 0.26272 -0.27708 -0.24896 0.37086 -0.2573 0.016128 0.0233 -0.026878 0.10659 -0.14522 0.21286 -0.012989 0.10043 -0.09915 -0.10166 -0.046659 -0.055205 0.0024183 -0.2339 -0.19459 0.018123 -0.26566 0.24187 -0.14906 0.14163 -0.18846 0.097021 0.014094 -0.042083 0.12232 -0.13843 -0.14625 0.20324 0.055342 -0.16236 0.11423 0.21217 -0.12075 0.12529 -0.32795 0.045296 -0.02158 0.19556 -0.070675 0.1358 -0.17023 -0.54997 -0.22456 -0.0011524 -0.1193 -0.12671 0.24921 
ocean 0.24388 0.077145 0.1489 0.081258 -0.045997 -0.077501 -0.0064226 -0.35389 -0.11364 -0.22348 -0.18228 0.26207 -0.12013 -0.123 0.39663 -0.31672 0.34891 -0.059061 -0.36484 -0.061002 0.17534 0.054587 -0.34037 -0.040781 -0.3916 -0.051877 0.17628 -0.059768 0.20058 0.072862 0.090628 0.42651 0.17774 0.12951 -0.048427 -0.059321 0.0055567 -0.1465 -0.31105 0.052811 -0.11699 0.13346 -0.053323 -0.10821 0.24922 -0.19439 -0.31349 0.041381 0.46243 -0.10032 -0.16447 -0.13648 -0.69802 0.057522 -0.25549 -0.11191 0.11739 -0.45007 0.33788 -0.21589 0.010148 -0.22571 0.00094336 0.24266 -0.27576 0.2271 -0.26461 -0.17995 -0.01909 0.1808 -0.24841 0.095976 0.30323 0.048316 0.078193 0.43446 0.029811 -0.39535 -0.36102 -0.46732 -0.22839 0.29705 -0.17733 0.47279 -0.27458 -0.2926 0.23604 -0.31225 0.42621 -0.29582 0.38147 -0.31995 0.14334 -0.016591 -0.47225 -0.2558 -0.33695 0.033657 -0.30167 -0.37081 
for 0.062363 -0.12286 0.13428 0.27014 0.032915 0.096904 -0.61197 -0.39749 0.093298 0.046024 -0.1929 -0.1006 -0.32572 -0.020344 -0.16868 -0.3753 -0.0083865 -0.10988 -0.29901 -0.20414 0.072439 0.22036 0.28126 -0.3994 0.052092 -0.21344 0.30527 -0.059662 -0.072289 -0.029671 -0.051264 -5.82e-06 -0.072037 0.077579 -0.075663 -0.33732 0.17508 -0.15415 0.20195 -0.25811 -0.28641 0.046625 -0.0039925 0.14184 0.20444 0.21545 0.321 -0.092449 0.47624 -0.15235 -0.20863 0.082097 -0.47703 0.05155 -0.036538 -0.23376 -0.11849 0.12481 0.23831 0.45217 0.19912 0.15966 -0.06442 0.31012 -0.2104 -0.047966 -0.22315 -0.13654 -0.055565 -0.22232 0.059431 0.0854 0.29132 0.14877 0.08136 0.049145 -0.13839 -0.0020673 -0.065875 -0.30492 0.0063814 -0.16331 -0.22101 -0.20484 -0.00079103 -0.22558 0.031907 0.085886 0.10596 0.017768 0.27039 -0.29392 -0.1759 -0.176 -0.45398 -0.24167 0.14002 -0.10965 -0.29527 0.24015 
on 0.30039 -0.11393 0.018378 0.018379 0.047334 0.40463 -0.22965 -0.23012 -0.1199 0.15429 -0.048953 -0.11813 -0.20038 0.077998 0.046878 -0.090195 0.1412 -0.14689 -0.58369 -0.19147 0.19496 0.34291 0.27937 -0.44951 -0.1852 -0.028648 0.17574 0.31441 -0.05465 0.028948 -0.17891 0.15104 -0.22695 0.23409 -0.04831 -0.068879 0.18922 -0.0062818 -0.012515 0.15165 -0.55397 0.03115 0.24475 0.0023931 0.055566 0.19064 0.18133 -0.27209 0.74191 0.27504 -0.3904 0.45533 -0.21749 -0.29802 0.30338 0.11888 0.13804 0.012738 0.45117 0.064839 -0.11516 0.11189 -0.053271 0.34947 -0.010945 -0.3181 -0.29572 0.02069 0.070388 -0.29285 0.45522 0.010162 0.33776 0.047135 0.11867 0.23714 0.10772 0.072748 -0.052745 -0.16102 0.028313 0.19921 -0.051163 0.034024 0.11111 -0.35126 0.39161 -0.63157 -0.23974 -0.0093013 0.064693 -0.16611 -0.034499 -0.22841 -0.038993 -0.332 0.45107 -0.24407 -0.36296 0.37534 
or 0.32023 0.049227 0.35691 0.040648 0.057538 0.18529 -0.22707 -0.086369 0.13975 0.13802 -0.10178 0.12827 -0.12037 0.22585 -0.1465 -0.0053636 -0.067274 -0.22703 -0.2882 -0.33854 0.3222 0.63772 0.11361 -0.54192 -0.068034 -0.031915 0.18214 0.22771 -0.25771 -0.15674 -0.21259 -0.30465 -0.11933 -0.14069 0.061392 -0.46801 0.094448 -0.051726 0.020661 0.036528 -0.3329 0.035428 0.0042487 0.083508 -0.12506 0.43939 0.42779 -0.025957 0.31531 -0.29399 -0.21871 0.39009 -0.46091 0.11139 0.095907 0.069452 -0.0088558 0.27558 0.47522 0.47437 0.27594 -0.049783 -0.18958 0.090436 0.04828 -0.15848 -0.42039 -0.38112 -0.11832 -0.17271 0.38333 -0.023013 0.25878 -0.25283 0.060223 -0.017066 -0.062009 0.31333 -0.025507 -0.23513 0.24741 -0.11827 0.21572 -0.12386 0.32001 -0.40879 -0.10152 -0.068784 0.059641 -0.13319 0.12125 -0.12407 0.16636 -0.38788 -0.58658 0.064851 0.20958 0.019238 -0.2034 0.3455 
be 0.085661 0.09563 -0.050295 0.35452 0.048286 -0.15675 -0.082133 -0.28796 0.01481 0.13267 -0.26761 0.12445 -0.19674 -0.015002 0.16526 0.08326 0.040309 -0.248 -0.34169 -0.019679 0.22217 0.40566 -0.040314 -0.28077 -0.31929 0.11372 0.083794 -0.016713 0.16976 -0.066305 -0.081271 0.085768 0.058567 0.16268 0.012566 -0.40726 -0.038484 -0.088286 -0.11168 0.3252 0.090736 0.023513 0.0075909 -0.23256 0.14023 0.19123 -0.17659 0.085238 0.24705 -0.31167 -0.063059 0.28376 -0.28117 -0.055122 -0.013556 -0.15401 0.11952 -0.30305 0.2881 -0.15952 0.0081204 -0.10404 -0.017893 -0.12319 -0.011192 0.18188 -0.18746 -0.041197 -0.091438 -0.12327 0.1252 -0.1253 0.23767 -0.17567 0.11916 0.14758 0.13449 -0.066107 -0.16216 -0.19567 0.2625 0.040213 -0.28279 0.13177 -0.11574 0.039329 0.15104 -0.27852 0.17119 -0.080449 0.19367 0.0065902 0.038824 -0.17725 -0.4891 -0.082588 -0.14191 -0.013792 -0.033922 0.13089 
from 0.38379 0.11465 -0.033092 0.2551 -0.11724 0.43855 -0.30138 -0.15903 0.13266 0.15471 -0.07047 -0.014585 -0.21908 -0.19983 -0.081548 -0.032345 -0.1317 -0.40611 -0.043132 -0.37216 0.042694 0.091962 -0.14019 -0.37224 -0.13554 0.047758 -0.025715 0.41282 -0.12169 0.15202 0.1823 0.043374 0.06936 -0.29271 0.1272 -0.40691 0.15244 0.14104 0.19205 0.087791 -0.083663 0.24593 -0.091767 -0.38344 0.31466 0.15502 0.45731 0.030969 0.49605 -0.358 -0.18327 0.14011 -0.64599 -0.063984 -0.099196 -0.27712 0.0095124 0.046912 0.35582 0.27019 0.36869 -0.12177 -0.065589 0.34224 0.046198 0.13764 -0.084241 0.05221 -0.0047433 0.033148 0.012031 0.1903 0.2541 -0.013294 0.40137 -0.37511 -0.055824 0.098781 0.25166 -0.083993 0.31191 0.24678 -0.016192 -0.15114 0.15939 0.37082 0.36204 0.15007 0.18725 -0.19482 0.30235 0.11257 -0.082198 0.039447 -0.51405 -0.12715 0.19913 0.1115 0.1416 0.25083 
00 0.25039 -0.17332 -0.22666 0.5671 -0.56196 -0.14391 -0.36593 -0.080176 -0.25035 -0.12125 -0.36048 0.089377 -0.11291 -0.29099 0.28074 0.18277 -0.21164 -0.14728 -0.93589 0.20665 -0.035814 0.72858 0.24707 -0.68273 -0.5738 -0.21984 0.27846 -0.00027768 -0.041068 0.040438 -0.17475 0.0077408 0.13035 0.31955 -0.28785 -0.59094 0.40034 -0.02116 0.46487 -0.31531 0.020569 -0.43119 -0.39096 -0.18685 0.56081 0.040401 -0.60677 -0.55083 0.18084 -0.22122 0.074171 0.15332 -0.20168 0.19848 -0.44291 -0.33464 -0.010044 -0.036683 0.013574 -0.35213 -0.24426 0.31462 -0.11076 0.13272 -0.193 0.10322 -0.054214 -0.20825 -0.46783 -0.20112 0.19951 0.097225 0.6072 -0.28892 0.41677 0.51727 0.24707 -0.024639 -0.23199 -0.055105 -0.041842 0.12611 -0.65004 0.1522 -0.48791 0.25602 0.25613 -0.30942 0.13325 -0.064019 0.29226 -0.060266 0.20526 -0.40535 -0.20773 -0.11617 -0.2068 -0.0060861 -0.37626 -0.1309 
they 0.069123 0.15964 0.045144 0.20873 -0.098586 0.2068 -0.12587 -0.35416 0.077307 0.20803 -0.085262 0.090035 -0.27052 -0.11474 -0.05333 -0.049694 -0.086693 -0.30667 -0.20655 -0.24909 0.15201 0.22907 0.035785 -0.36956 0.032536 0.21876 -0.19829 0.23047 0.26872 -0.012074 0.18456 0.15687 -0.048382 -0.037788 0.039306 -0.45144 -0.018636 -0.014935 -0.080807 0.30235 -0.031283 0.25728 0.20731 -0.34635 0.17822 0.16111 0.31082 -0.041981 0.2443 -0.51893 -0.047606 0.13523 -0.32454 -0.18082 -0.044926 -0.15923 0.028104 0.079681 0.19567 0.024684 0.125 -0.15557 0.009927 0.10912 -0.026624 0.20073 -0.10646 0.15623 -0.03767 0.086433 0.20834 0.068644 0.32046 -0.2039 0.17108 -0.015196 0.08745 0.15488 -0.25795 -0.23033 0.3476 0.11929 -0.097296 -0.20252 -0.34085 0.21309 0.30732 -0.0060405 0.22037 -0.15341 0.19757 0.053046 0.068978 -0.012385 -0.47717 -0.2035 0.042133 0.0267 0.03721 0.13812 
photosynthesis 0.023727 -0.038602 0.27357 0.41521 -0.30453 0.0042515 -0.60468 -0.35935 0.096173 -0.048965 -0.38052 0.30162 -0.42352 -0.29927 0.12686 -0.11669 -0.082848 -0.24309 -0.51268 -0.029442 0.23605 0.46218 0.021174 -0.32136 -0.23011 -0.20644 0.10695 0.22636 0.1113 0.020912 0.023014 0.2437 -0.064262 0.17172 0.017785 -0.56431 0.17978 -0.064482 0.24018 -0.12811 -0.078203 0.19641 -0.16743 -0.19257 0.46643 0.13685 -0.24097 0.043426 0.25212 -0.51189 0.17983 0.13206 -0.43281 0.09775 -0.24012 -0.36892 -0.1191 0.066669 0.28013 -0.040621 0.20469 0.10723 0.23339 0.21742 -0.001778 0.27885 0.040178 0.090461 -0.15002 -0.27023 -0.024637 0.13787 0.61898 -0.040254 0.25379 0.36652 0.012935 0.046097 -0.25587 -0.34661 0.087082 -0.070573 -0.63713 -0.096678 -0.36087 0.16471 0.14283 -0.21298 0.42056 0.11539 0.38142 0.0093674 0.047321 -0.25445 -0.58697 -0.17596 -0.055431 -0.17594 0.024474 -0.21375 
color 0.043595 0.043665 -0.099749 0.12013 -0.28813 0.33745 0.14364 -0.33916 -0.082218 -0.1321 0.0029049 0.27366 -0.31289 0.35717 0.11993 0.083716 0.076176 -0.28132 -0.058537 -0.4994 0.48973 0.47577 -0.28983 -0.27043 0.078455 0.10165 0.078248 0.18928 0.35208 0.19429 0.21114 0.44101 0.053402 0.11534 0.031988 -0.27407 0.24794 0.11858 -0.30306 0.42958 -0.32832 0.34896 0.1983 -0.10363 0.20298 0.061493 0.085033 0.50846 0.26564 -0.41254 -0.461 -0.16309 -0.28931 -0.24747 0.3076 0.15489 0.31112 -0.14958 0.27827 -0.42179 0.087581 -0.18691 -0.0040221 0.29289 -0.32092 0.11849 -0.052448 -0.055199 0.085874 -0.038283 0.5065 -0.024545 0.64124 0.028696 0.19027 0.20145 -0.26771 0.49357 -0.592 -0.31806 -0.11238 0.17564 -0.29621 0.14797 0.020388 -0.13011 0.061448 -0.43015 0.29316 0.069248 0.29581 -0.2044 0.063628 -0.11891 -0.28074 -0.72133 0.23621 -0.1936 -0.10743 0.48933 
which 0.14187 0.055257 0.034787 0.2188 -0.038511 -0.027645 -0.02303 -0.20404 -0.044881 -0.088915 -0.061234 0.24447 -0.23276 0.28056 0.25797 0.10157 0.1077 -0.40227 -0.15007 -0.1899 0.25083 0.52479 -0.10425 -0.1454 -0.24084 -0.09944 0.107 0.10992 0.032443 -0.051425 -0.058705 0.13977 0.040913 0.12395 0.063972 -0.18964 0.21357 -0.0019902 -0.21704 0.22719 -0.18033 0.21195 -0.033154 0.032582 0.084384 -0.037618 -0.035035 0.37 0.35343 -0.12685 -0.39391 0.21405 -0.34649 -0.12158 0.1622 0.079758 0.34189 -0.27092 0.2827 -0.21919 0.092988 -0.1284 0.0068838 0.11758 -0.14108 0.053606 -0.093946 -0.13863 0.038783 -0.2214 0.21964 0.0068281 0.37222 0.072106 0.19627 0.20291 -0.10597 0.21611 -0.15689 -0.21433 0.03528 0.058084 -0.24275 0.20924 0.26641 -0.16576 0.0069034 -0.4028 0.18061 0.040368 0.29362 -0.18831 -0.040208 -0.13645 -0.47234 -0.26728 0.080696 -0.16263 0.023445 0.34041 
there -0.08826 0.13711 0.036203 -0.072221 0.079486 -0.039109 -0.0092411 -0.4708 -0.045856 0.12091 -0.10245 0.011067 -0.29531 -0.018756 0.28447 -0.025796 0.40088 -0.26403 -0.35706 -0.063708 0.069505 0.27548 0.077034 -0.59009 -0.37136 -0.016576 -0.12725 -0.042197 0.29957 -0.028386 -0.028377 0.082736 0.06205 0.34116 -0.15339 -0.28213 0.013297 -0.085795 -0.1727 0.33488 -0.12284 0.1651 0.15636 -0.014161 0.088342 -0.038802 0.10311 -0.094895 0.13835 -0.088554 -0.11781 0.19275 -0.37664 -0.080648 0.094722 0.11717 0.17326 -0.13277 0.1224 -0.17547 -0.27152 0.15577 0.050978 -0.016982 -0.18413 0.046063 -0.27365 0.22296 -0.051816 0.027579 0.15178 0.012653 0.17891 -0.14272 -0.020427 0.4462 0.10012 0.037522 -0.39163 -0.25943 0.072849 0.25491 -0.15373 0.041748 -0.40594 -0.30456 0.19074 -0.06489 0.14295 -0.247 0.22736 -0.097733 0.077135 0.07285 -0.40923 -0.29578 -0.28405 0.017245 -0.1069 -0.026933 
reefs 0.42254 0.065214 0.14546 0.042156 -0.1627 0.24909 -0.1442 0.015514 -0.13115 0.19616 -0.099105 0.11885 -0.13325 -0.26863 -0.2144 -0.22577 -0.23776 0.062034 -0.59378 0.084437 0.33335 0.026449 0.18472 -0.38505 -0.18431 -0.064392 0.26916 -0.064072 0.0081786 0.13031 0.1477 0.14886 -0.087906 0.1299 -0.062938 -0.094465 0.13514 -0.3851 0.28892 -0.43994 -0.41311 -0.16328 -0.28468 -0.31214 0.41189 0.10737 -0.29108 -0.24247 0.59079 0.1753 -0.33597 -0.016328 -0.051601 -0.36942 -0.075959 -0.12382 0.082472 -0.028412 0.44573 0.18093 0.040268 0.2664 -0.1511 0.37988 -0.16865 -0.26858 -0.1083 -0.35008 -0.30581 -0.091684 0.41278 0.06203 0.53542 -0.088292 0.29623 0.19877 0.12134 -0.11434 -0.081573 -0.23219 -0.18695 0.12597 -0.10548 0.25234 -0.022042 -0.36422 0.2632 -0.037673 0.19903 -0.35479 0.12238 -0.090808 0.27471 -0.21413 -0.046877 -0.15104 0.44893 0.011265 -0.60951 0.11221 
zooxanthellae 0.27549 0.0096089 0.30668 0.48508 -0.29366 0.22693 -0.25047 -0.42339 -0.15169 0.21707 -0.52286 0.17368 -0.38195 0.098551 -0.049313 -0.066543 -0.023151 -0.18325 -0.59919 -0.31658 0.26183 0.59086 -0.054544 -0.15609 0.14106 0.20159 0.061244 0.49398 0.15667 -0.10708 0.01232 0.26009 -0.14938 0.10319 0.030599 -0.5888 -0.13591 0.057246 0.075344 0.32655 -0.18977 0.4571 0.27061 -0.073564 0.43041 0.30937 0.061469 0.14477 0.2015 -0.43253 0.27812 0.15696 -0.37756 -0.17871 0.24911 -0.13767 -0.15977 0.38501 0.45448 -0.011379 -0.070277 -0.25564 0.18144 -0.0099209 -0.13344 0.25156 0.20299 0.35247 -0.11413 -0.13891 0.30257 0.0035202 0.59396 -0.018416 0.26555 0.23035 -0.15644 0.40588 -0.33711 -0.40761 0.14079 -0.26857 -0.4244 -0.036268 -0.32454 0.069841 -0.0036138 -0.38299 0.29165 0.097791 0.26824 0.02283 -0.1908 -0.5568 -0.21813 -0.15461 0.24776 -0.21052 -0.011464 0.30585 
their -0.11236 0.099475 0.21071 0.14058 -0.0033977 0.33152 -0.20729 -0.30762 0.13191 -0.12147 0.031812 0.10099 -0.40781 0.21058 0.1308 -0.26433 0.073633 -0.34941 -0.06481 -0.34394 0.32222 0.13953 0.2069 -0.079611 0.26633 -0.034298 -0.17729 0.41002 0.24854 0.17722 0.087072 0.44468 -0.006277 0.051714 0.0039424 -0.45274 0.020752 0.13052 -0.22423 0.35369 -0.33622 0.47337 0.27296 -0.24916 0.20975 0.032642 0.1623 0.14648 0.52009 -0.34778 -0.3141 0.11838 -0.20254 -0.20528 -0.060632 -0.01697 0.10705 0.031675 0.21195 -0.18824 0.07006 -0.13338 0.15024 0.38408 -0.19859 0.039809 -0.25188 0.16491 0.19025 -0.15265 0.24161 0.12837 0.49171 0.16246 0.13589 0.23632 -0.047911 0.3216 -0.42234 -0.1863 0.16035 0.12489 -0.19305 -0.096573 -0.42283 -0.089264 0.5689 -0.60662 0.066126 -0.10426 0.33941 -0.03554 0.026075 -0.27797 -0.32254 -0.45235 0.37973 -0.24251 -0.13332 0.19953 
as 0.063472 0.024791 -0.19967 0.13977 0.13628 0.1196 -0.41465 -0.27306 0.0755 0.12309 -0.15814 -0.16994 -0.23528 -0.058421 0.25956 -0.10571 0.27986 -0.20105 -0.046225 -0.22481 -0.045187 0.14524 -0.037936 -0.69561 -0.39325 -0.3129 0.18287 -0.048784 -0.091105 0.08254 -0.0093242 0.03802 0.060345 0.23874 -0.10537 -0.27012 0.15409 0.11621 0.11748 -0.0075055 -0.011743 -0.10969 -0.03623 0.019976 0.22233 0.15714 0.005852 -0.042931 0.41509 -0.049301 -0.11453 0.34184 -0.50471 0.16081 0.047227 -0.039933 -0.025863 -0.15086 0.29978 0.1923 -0.077077 0.19376 -0.035872 0.10418 -0.036792 0.035018 -0.19534 0.15652 0.10139 -0.19231 -0.17261 -0.12331 -0.029668 0.087187 0.083482 0.022842 -0.13725 -0.060743 0.097188 -0.18346 0.0087217 0.2174 -0.33903 0.13713 0.18947 -0.23238 0.30523 -0.091353 -0.090713 -0.20008 0.087233 0.029389 0.015185 0.031938 -0.43891 -0.38991 -0.26431 -0.1174 -0.15717 -0.092537 
also 0.09663 0.049875 0.11883 0.15584 0.037483 0.052811 -0.17625 -0.31081 0.0031532 0.029548 -0.12489 0.125 -0.2735 0.0046136 0.1396 -0.1232 0.15237 -0.27143 -0.264 -0.077855 0.094744 0.29385 0.11624 -0.31781 -0.16951 -0.067696 0.016112 0.14798 0.036628 -0.07093 -0.025351 0.1043 -0.016427 0.12759 -0.036383 -0.30253 0.0013368 -0.045696 -0.053543 0.17333 -0.095379 0.2317 0.14052 -0.017031 0.093885 0.13504 0.096665 -0.089672 0.29206 -0.15754 -0.023843 0.24877 -0.3554 -0.10954 0.015669 -0.066196 0.011592 -0.021879 0.27606 0.0023211 0.018613 -0.021387 0.03568 0.090781 -0.059988 0.040635 -0.19669 0.1264 -0.012972 -0.017988 -0.028578 0.067478 0.24263 0.020943 0.12654 0.20447 0.049632 0.090087 -0.15324 -0.26201 0.084926 0.036814 -0.20531 -0.06563 -0.068605 -0.121 0.18217 -0.26503 0.051253 -0.082347 0.25385 -0.050047 0.0014717 -0.12856 -0.37426 -0.15097 -0.12373 -0.141 -0.0054748 0.037258 
by 0.16376 0.145 -0.19135 0.45479 0.29862 0.081959 -0.40773 0.022027 -0.068919 -0.14668 -0.0285 0.13843 -0.019394 0.21359 0.1734 -0.27382 -0.17053 -0.43387 0.17437 -0.16362 0.20243 0.29003 0.41367 -0.22427 -0.13184 -0.40085 0.11407 0.030686 -0.2457 -0.019333 -0.010243 0.19951 -0.042384 0.071904 -0.23975 -0.38443 -0.16061 0.18957 -0.043235 -0.12148 0.21844 -0.1096 -0.12466 -0.12581 0.083919 -0.072703 -0.16199 -0.23881 0.63665 -0.085675 -0.1747 0.4082 -0.030584 -0.19677 -0.3027 -0.19839 -0.098906 -0.079901 0.38007 0.012095 0.14748 -0.18936 -0.0049808 0.12121 0.047949 -0.11337 -0.26351 -0.15714 0.053803 -0.0039337 -0.43388 -0.13377 0.073719 0.30696 0.27514 -0.068324 -0.0032819 0.098075 -0.11449 -0.093906 0.18089 -0.014178 -0.32776 0.35028 0.094527 -0.32939 0.69702 -0.7027 -0.4445 -0.39909 0.28683 0.15783 0.25994 -0.54593 -0.26107 -0.17968 0.023372 -0.39575 -0.27171 -0.0056682 
rates 0.059699 -0.17899 0.1393 -0.093744 0.13102 0.082362 -0.034048 -0.23434 -0.1878 -0.2209 0.11171 0.23069 0.021733 0.16443 0.48402 0.27453 0.3357 -0.41635 -0.53583 -0.15842 0.19743 0.69466 0.06198 -0.42486 -0.54866 -0.09798 -0.017389 0.18096 0.21457 -0.04803 -0.11325 0.042672 -0.026332 0.31371 -0.12023 -0.27476 0.13831 0.058743 -0.48081 0.33519 -0.31465 0.17211 0.090495 0.014851 -0.1329 -0.23288 0.12434 -0.066948 0.26263 0.09191 -0.32998 0.27643 -0.2095 -0.32492 0.061781 0.1854 0.40911 -0.15898 0.18304 -0.51489 -0.12308 -0.050499 0.18381 0.037632 -0.01914 -0.1343 -0.29871 -0.098975 -0.059889 -0.017754 0.20356 0.043657 0.35733 -0.12815 -0.054333 0.54677 0.2266 0.18207 -0.53221 -0.058579 0.061344 0.41731 0.098403 0.12731 -0.3787 -0.43272 0.053292 -0.6148 -0.061022 -0.21273 0.23963 -0.06539 0.29517 -0.31328 -0.38359 -0.21781 0.023991 -0.18019 -0.18683 0.054915 
with 0.017527 0.044955 -0.077654 0.11214 -0.31626 0.36444 -0.4018 -0.22366 0.082329 -0.0050361 -0.1852 -0.12111 -0.24443 -0.2801 0.059714 -0.14867 0.053302 -0.14131 -0.1312 -0.46507 0.08496 0.044973 -0.087508 -0.24548 0.1457 0.049697 0.18253 0.25902 -0.0019591 0.013732 0.10956 0.30955 -0.011584 0.28655 -0.098811 -0.41212 0.21986 0.0298 0.0029923 0.16768 -0.19425 0.050591 0.084519 -0.10452 0.46619 0.052848 -0.20307 0.28984 0.4825 -0.15814 -0.054744 0.082136 -0.20113 0.048762 0.15653 -0.089895 0.083091 -0.15702 0.26267 -0.09466 -0.23171 0.24979 0.16138 0.23032 -0.22977 0.22349 0.054079 0.2234 0.080473 -0.19125 0.40925 0.048603 0.5136 0.20893 0.1033 0.10345 -0.11717 0.21228 -0.20999 -0.20374 -0.10687 0.21071 -0.50591 0.17874 -0.14306 -0.012662 0.2268 -0.16113 0.048693 -0.23104 0.1253 -0.060861 -0.03941 -0.28199 -0.29001 -0.5004 0.13246 -0.08127 -0.30194 0.081668 
changes 0.034987 -0.21542 0.25768 0.33344 0.11319 0.064533 -0.33318 -0.23517 0.047636 -0.28366 -0.032814 0.35901 -0.19424 0.01912 0.41418 -0.10908 0.069586 -0.47228 -0.43881 -0.009587 0.089324 0.48951 0.35179 -0.08525 -0.2206 -0.23568 0.031745 0.36518 0.021094 -0.13734 -0.22148 0.13043 -0.053142 0.10352 0.0059025 -0.42897 0.13281 0.078236 -0.1389 0.15388 -0.14819 0.2138 0.088918 -0.087486 0.0023751 0.059379 -0.018773 -0.22945 0.48011 -0.24603 -0.28524 0.43684 -0.20344 -0.086467 -0.29973 -0.1489 0.10579 -0.093677 0.23679 -0.26957 0.099077 -0.071606 0.18564 0.29242 0.11654 -0.065907 -0.34602 -0.0037345 0.074001 -0.21818 -0.046446 -6.9257e-05 0.37042 -0.0028049 0.085037 0.47532 0.20401 0.022138 -0.22345 -0.070428 0.15494 0.09208 -0.2533 -0.17382 -0.13212 0.0069473 0.34002 -0.87111 -0.14836 0.15565 0.2605 -0.1114 0.091991 -0.42265 -0.43624 -0.090916 0.086631 -0.41443 0.0099237 -0.014262 
if -0.024027 0.045879 -0.04156 0.1695 -0.043042 -0.066561 -0.29808 -0.32782 0.16506 0.09478 -0.11593 0.046882 -0.38409 -0.013279 0.16765 -0.025018 0.19686 -0.36283 -0.13261 -0.074303 0.14853 0.28477 0.052162 -0.56162 -0.32333 -0.26327 0.01857 -0.1108 0.053605 0.010481 -0.081648 0.011719 0.034381 0.18667 0.047998 -0.33534 0.12277 -0.0065336 0.10629 0.14038 -0.12724 0.10145 -0.00050121 -0.020257 0.12406 0.19814 -0.011935 0.081822 0.19666 -0.25462 -0.082044 0.30267 -0.42036 0.039631 0.037434 -0.083437 -0.061504 -0.1098 0.2282 -0.028909 0.012692 0.16164 -0.03032 0.074366 -0.046534 0.064479 -0.2471 0.13992 0.0096242 -0.18517 0.035769 -0.06252 0.14719 -0.048719 0.0055603 0.2097 -0.054826 0.11268 -0.18431 -0.19403 0.073968 0.097429 -0.40841 -0.088592 0.016043 -0.072129 0.10274 -0.14731 0.13158 0.0017239 0.22924 -0.070745 0.0050644 -0.023326 -0.60468 -0.31121 -0.18527 -0.18031 -0.097808 0.040693 
pacific 0.38139 0.098786 -0.36866 0.39833 0.13188 -0.14573 0.11824 -0.33783 -0.28115 0.092185 -0.17353 0.19807 0.054449 0.033948 0.43307 0.10325 0.25582 -0.30069 -0.29858 -0.21278 0.020113 0.43864 -0.39957 -0.23203 -0.64383 0.35101 0.33155 -0.34748 0.21849 -0.056838 0.009883 0.17418 0.21318 0.24389 -0.18563 -0.045187 0.10559 0.0043434 -0.42123 0.40903 0.043613 -0.25824 -0.01244 -0.20346 0.13975 -0.26046 -0.11238 0.17542 0.55273 0.10128 -0.42527 0.081001 -0.77299 -0.27013 -0.16584 -0.11494 0.4338 -0.77868 0.38501 -0.18972 -0.044133 -0.43178 -0.26507 -0.10132 -0.27059 0.16757 -0.11574 -0.31624 -0.064535 0.34206 -0.13302 -0.19122 0.11161 -0.017288 0.27527 0.040642 0.13777 -0.40839 -0.085989 -0.44294 -0.00032418 0.30761 -0.028832 0.53696 0.027178 -0.15436 0.15983 -0.38872 0.1532 -0.24887 0.31602 -0.29197 -0.0050594 0.0047246 -0.50079 -0.11416 -0.43439 0.096217 -0.15204 0.18902 
have 0.083864 0.039909 -0.069074 0.012131 -0.14797 0.28032 -0.036578 -0.24409 -0.15165 -0.037063 -0.16683 -0.12917 -0.20267 -0.0083791 0.14192 -0.10725 0.1712 -0.11382 -0.24508 -0.32735 0.12578 0.11233 0.032643 -0.39341 0.035866 0.032564 0.0053785 0.1797 0.19686 0.084397 0.17563 0.31776 0.14363 0.20477 -0.094759 -0.44675 -0.086537 -0.010424 -0.083622 0.25193 -0.053122 0.17086 0.064198 -0.19179 0.31682 0.15396 -0.13608 0.0024674 0.26149 -0.12547 -0.029036 -0.041659 -0.11885 -0.098644 0.24177 0.047567 0.020614 -0.030018 0.22286 -0.20633 -0.28569 0.22815 0.063189 0.13584 -0.27008 0.050628 -0.12335 0.19292 -0.071434 0.062545 0.23098 0.011409 0.39144 0.035565 0.10586 0.2966 -0.017881 0.22049 -0.43467 -0.053149 -0.11542 0.27138 -0.23636 0.16558 -0.32777 -0.22123 0.20067 -0.16314 0.026382 -0.39286 0.27761 0.030893 0.157 -0.30767 -0.031076 -0.38157 0.035066 -0.033472 -0.35999 0.15245 
amount 0.19742 0.0015316 -0.066561 0.31954 -0.05597 -0.24384 -0.22515 -0.53127 0.063087 -0.11697 -0.24712 0.1831 -0.31198 -0.10729 0.46553 -0.45003 0.51245 -0.17661 -0.33746 0.11843 0.038689 0.082731 -0.061955 -0.3167 -0.37546 -0.36697 0.30239 -0.33517 0.0038899 0.011171 -0.2152 0.28682 0.158 0.32652 -0.010717 -0.16349 0.045425 0.010608 0.11871 -0.0076558 -0.19627 0.053134 0.13236 0.17936 0.20097 0.063118 -0.38658 -0.16181 0.38053 -0.065994 -0.034809 0.22887 -0.67064 0.18908 -0.27975 -0.15285 -0.24588 -0.3425 0.38908 -0.22964 -0.16632 0.035513 -0.05067 0.26122 -0.18281 0.1846 -0.5008 0.11391 0.09469 -0.038085 -0.31023 -0.10636 0.15433 0.062728 -0.081915 0.55091 -0.098512 -0.28769 -0.33146 -0.47121 -0.27428 0.16464 -0.69032 0.22637 -0.05443 -0.16174 0.24019 -0.55519 0.10954 0.063873 0.18269 -0.37513 -0.039611 -0.1355 -0.57218 -0.4653 -0.43269 -0.36016 -0.37424 -0.33042 
white 0.31943 0.13164 0.0077666 0.13508 -0.37417 0.28738 0.21506 -0.24224 -0.054659 0.053128 -0.22955 0.0045265 -0.29525 0.38536 0.18029 0.24109 0.17743 -0.31584 -0.26133 -0.54977 0.22149 0.61351 -0.33901 -0.32016 0.072255 0.18068 0.061274 0.43837 0.17178 0.046561 0.014383 0.24134 0.0767 0.14439 0.14282 -0.50629 0.16653 0.23549 -0.224 0.63778 -0.40353 0.25569 0.31751 -0.03615 0.22156 0.30809 0.13191 0.37785 0.22813 -0.32042 -0.19997 0.27081 -0.44172 -0.10808 0.43331 0.27606 0.15597 0.00076939 0.38325 -0.17968 -0.17036 -0.29402 -0.14356 0.059599 -0.30269 0.13638 -0.15666 0.036005 0.055198 -0.19434 0.68984 -0.048854 0.44057 -0.17421 0.22776 0.17205 -0.25883 0.58956 -0.3128 -0.23656 0.073791 0.081349 -0.12827 0.16456 0.13588 -0.098397 0.044738 -0.45005 0.18582 0.090638 0.14971 -0.27304 -0.052073 -0.19778 -0.31295 -0.41657 0.21424 -0.093637 -0.16464 0.58308 
cause 0.21464 0.21824 0.36237 0.017982 0.17322 -0.11477 -0.11411 -0.2016 -0.047125 0.085686 -0.12998 0.22871 -0.23017 0.16441 0.27178 -0.061363 0.21824 -0.40845 -0.41617 -0.056125 0.25397 0.58916 0.11278 -0.14919 -0.39943 0.081647 -0.019472 0.21539 -0.0095379 -0.15362 -0.20334 0.026469 -0.074002 0.1555 -0.038801 -0.23114 0.010974 -0.12911 -0.30801 0.27336 -0.23054 0.23355 -0.055385 -0.029123 -0.050965 -0.067292 0.13407 0.098995 0.51818 0.089502 -0.26313 0.46903 -0.47244 -0.23379 0.021195 0.070968 0.2926 -0.1773 0.46915 0.10165 0.14537 -0.15871 0.047385 0.027684 0.0070578 -0.15386 -0.21416 -0.17687 -0.070511 -0.12013 0.08737 0.10384 0.3201 0.052489 0.22156 0.33642 0.19444 -0.018464 -0.047619 -0.3717 0.24195 0.019494 0.13086 0.12777 0.044631 -0.43475 0.18983 -0.48499 0.12477 -0.090345 0.41769 -0.12693 0.013575 -0.22953 -0.52994 0.19621 -0.031481 -0.094136 0.13591 0.11005 
0000 0.32416 -0.07375 -0.5574 0.2261 -0.34223 0.025554 -0.0028906 -0.20983 -0.42555 0.2407 -0.2628 -0.2172 -0.070525 -0.038054 0.32909 0.26847 0.15961 -0.14913 -0.8146 -0.051114 -0.19028 0.77104 0.30514 -1.1739 -0.60705 0.038928 0.20664 -0.2285 0.077772 -0.051481 -0.17516 -0.21368 0.19421 0.46961 -0.48818 -0.46769 0.28209 0.017776 0.24378 0.14278 -0.057473 -0.51491 -0.023351 -0.067263 0.34802 0.074136 -0.15841 -0.66496 0.12174 0.077576 -0.088816 0.18907 -0.24675 0.00086757 0.040515 0.048883 0.099319 -0.020737 0.0061389 -0.30491 -0.66272 0.32552 -0.25325 -0.12212 -0.40574 -0.1801 -0.18889 -0.046401 -0.41996 0.09664 0.47735 -0.10098 0.26947 -0.33808 0.28499 0.40427 0.21462 0.083042 -0.39598 -0.012277 -0.13589 0.35949 -0.28936 0.17335 -0.47042 -0.083621 0.1853 -0.14508 -0.17603 -0.40017 0.26275 -0.063559 0.19701 -0.32999 0.0054893 -0.25754 -0.33254 0.064477 -0.59283 0.31894 
causes 0.25226 0.21194 0.17239 0.082266 0.13247 -0.14614 -0.059132 -0.22297 -0.047016 0.00046407 -0.057643 0.28543 -0.19495 0.2536 0.46187 0.046487 0.26483 -0.45511 -0.24598 -0.09297 0.18524 0.66368 -0.084035 -0.077054 -0.494 0.06291 0.065499 0.18098 0.019103 -0.12821 -0.16279 0.067651 0.0012435 0.15137 -0.062341 -0.13092 0.20118 0.029861 -0.45803 0.36791 -0.17376 0.1794 -0.015063 0.010028 -0.050403 -0.14945 0.10229 0.24138 0.59193 -0.008826 -0.41375 0.46669 -0.61215 -0.15563 -0.032613 0.099436 0.41431 -0.39949 0.41397 -0.04174 0.1501 -0.36634 0.0015345 0.012653 -0.032339 -0.047052 -0.22375 -0.24911 0.059152 -0.14692 0.031331 0.024574 0.25939 0.061948 0.27535 0.22945 0.11642 -0.083917 -0.015884 -0.40913 0.22228 0.11236 0.072597 0.27076 0.25429 -0.28492 0.2465 -0.62922 0.10091 0.023755 0.38722 -0.23536 -0.029659 -0.10557 -0.61446 0.07349 -0.14754 -0.14116 0.1912 0.12058 
one 0.2868 -0.077894 -0.063945 0.31239 -0.24234 0.27924 0.13307 -0.30844 -0.5278 0.16325 -0.090022 0.07992 -0.055966 0.19487 0.15294 0.012716 0.059816 -0.20495 -0.76789 -0.17217 0.11509 0.70344 0.29237 -0.53097 -0.085167 0.2327 -0.09456 0.21202 0.22961 -0.07495 0.19972 0.17692 -0.071659 0.19768 -0.19859 -0.23502 -0.037277 -0.0098825 -0.077742 0.14536 -0.23985 0.14729 0.23456 -0.22751 0.12065 -0.088631 0.080584 -0.44781 0.18528 -0.015961 -0.11858 -0.065888 -0.017791 -0.54206 0.21408 0.041554 0.10078 0.2529 0.18498 -0.34986 -0.22849 0.10875 -0.00053486 0.17094 -0.27142 -0.2006 0.12369 0.19758 -0.31345 0.32256 0.31536 0.089884 0.55982 -0.16486 0.20764 0.58427 0.26337 0.32755 -0.51708 -0.062879 -0.17267 0.31175 -0.10948 -0.0969 -0.57253 -0.095811 0.047217 -0.42344 -0.053672 -0.30867 0.21727 0.22296 0.063484 -0.41232 0.22883 -0.25318 0.14766 -0.057125 -0.1649 0.31202 
but 0.31271 -0.0086752 -0.18841 0.13462 0.029664 0.21924 -0.012208 -0.18797 -0.12971 0.048498 -0.014862 0.045654 -0.1726 0.030877 -0.02514 0.030192 -0.046241 -0.18079 -0.39917 0.00012223 0.19173 0.31009 0.1227 -0.61981 -0.31709 -0.018448 -0.072464 0.052068 0.15335 0.13442 0.079873 0.049125 0.065858 -0.073967 0.041287 -0.30752 -0.062349 -0.0057849 0.10473 0.14112 0.020658 0.04929 -0.0011596 -0.32226 0.040713 0.35773 0.14783 -0.41899 0.23513 -0.22497 -0.13491 0.096482 -0.17721 -0.20354 0.014433 -0.1622 -0.019194 0.05659 0.21309 -0.033239 0.16686 -0.054229 -0.18372 0.18954 0.071347 -0.1417 -0.34635 -0.12147 -0.17992 0.10724 0.08726 0.006288 0.19046 -0.22487 0.20127 0.021737 0.15138 0.0047406 -0.21811 -0.022956 0.18043 0.18134 0.021476 -0.11156 -0.10622 0.068076 0.34519 -0.20143 0.01254 -0.15996 0.27126 0.11387 0.26054 -0.13961 -0.14382 -0.12558 0.074611 -0.082655 -0.23764 0.25597 
co2 0.20922 -0.019973 0.05724 0.33252 -0.31231 -0.12998 -0.35376 -0.59888 0.16078 -0.078081 -0.29098 0.22385 -0.36718 -0.16795 0.35106 -0.1941 0.33903 -0.3388 -0.3309 -0.055649 0.15894 0.24148 -0.27857 -0.38939 -0.3568 -0.28454 0.18383 -0.029087 0.037506 0.011563 -0.050798 0.32303 0.060343 0.23839 0.16985 -0.2188 0.24134 0.10551 0.13734 0.026017 -0.2462 0.22062 0.097486 0.11952 0.30102 0.028009 -0.17739 0.16417 0.29109 -0.36017 0.050765 0.19821 -0.84773 0.17469 -0.13963 -0.18854 -0.15351 -0.18655 0.43811 -0.1709 0.10282 0.0024027 0.052838 0.34885 -0.059166 0.32879 -0.20238 0.26714 0.085854 -0.10171 -0.18032 0.0018713 0.35179 0.020003 -0.0065525 0.49913 -0.20694 -0.030165 -0.2739 -0.56683 -0.12773 0.15657 -0.78392 0.052961 0.056934 0.098345 0.093177 -0.39586 0.39987 0.31102 0.17462 -0.3069 -0.16664 0.054481 -0.81884 -0.49918 -0.31461 -0.31255 -0.013077 -0.33268 
change 0.056211 -0.21853 0.12365 0.31149 0.13784 0.03818 -0.25863 -0.22231 0.034958 -0.18916 -0.037313 0.27986 -0.051255 -0.070463 0.41386 0.046418 0.0777 -0.52474 -0.42003 -0.11713 -0.060041 0.50709 0.28626 -0.24826 -0.30539 -0.12809 0.00063683 0.26603 0.0013909 -0.21353 -0.23762 -0.065925 0.029168 0.080758 -0.047022 -0.51503 0.11789 0.076148 -0.13008 0.20826 -0.041284 0.073113 0.046983 -0.12802 -0.011863 0.027753 0.13615 -0.26592 0.37417 -0.21588 -0.25181 0.41952 -0.27302 -0.045897 -0.30158 -0.17916 0.1532 -0.12307 0.19092 -0.21425 0.048644 -0.028297 0.14091 0.15862 0.11323 -0.041069 -0.32409 0.0056428 0.02619 -0.054644 -0.022603 -0.035574 0.23937 -0.12405 0.048928 0.32483 0.23673 -0.0026184 -0.15212 0.012705 0.24201 0.18762 -0.12178 -0.20133 -0.16025 0.078817 0.21177 -0.57939 -0.15331 -0.0097565 0.24707 -0.083045 0.088947 -0.36791 -0.52244 -0.00076328 -0.053573 -0.23654 0.045054 0.057994 
its 0.02736 -0.0035865 -0.096046 0.091126 -0.1763 0.22743 -0.13391 -0.30498 0.074235 -0.028431 -0.0087758 0.030659 -0.36771 0.19433 0.1113 0.126 0.051093 -0.25528 -0.0089313 -0.36614 0.32932 0.29213 -0.15714 -0.40812 -0.013037 -0.088617 0.10718 0.072974 0.24311 0.13218 0.13178 0.24719 0.021512 0.19367 0.064719 -0.20313 0.33076 0.03584 -0.14566 0.26869 -0.35595 0.14841 0.12341 -0.049321 0.24188 0.097473 0.095269 0.4312 0.28887 -0.28306 -0.41715 -0.020485 -0.33996 -0.14163 0.27064 0.11599 0.22698 -0.16116 0.21347 -0.20307 0.049878 -0.024732 -0.056025 0.25158 -0.26956 0.060418 -0.094859 -0.034904 0.098149 -0.19286 0.43234 -0.045622 0.42025 0.031559 0.11559 0.10237 -0.25618 0.31156 -0.36864 -0.2274 -0.060552 0.17695 -0.30479 0.044521 0.085987 -0.13157 0.048631 -0.2191 0.22581 0.029399 0.21407 -0.25708 0.01812 0.0094151 -0.42663 -0.63898 0.19343 -0.19619 -0.24537 0.41356 
many 0.11366 -0.07408 0.11197 -0.27831 0.1138 0.40754 0.15565 -0.34276 -0.21911 -0.20112 0.068145 0.011726 -0.036709 0.25219 0.17446 0.029271 0.30787 -0.19414 -0.31254 -0.47394 0.31615 0.18944 -0.12459 -0.47415 -0.19843 0.024085 -0.10031 0.16158 0.43979 0.15539 0.28051 0.17296 0.13962 0.15888 -0.096827 -0.2674 -0.095583 -0.05203 -0.51375 0.34699 -0.29512 0.32338 0.15728 -0.12296 0.11634 -0.096256 0.24161 0.079113 0.3197 -0.058323 -0.45309 -0.24883 -0.29791 -0.33134 0.29315 0.24028 0.37965 -0.098256 0.22059 -0.38427 -0.20901 -0.028038 0.039076 0.25155 -0.36027 -0.15976 -0.33689 -0.075477 -0.018228 0.29544 0.36238 0.029706 0.42844 0.026762 -0.049552 0.42568 -0.031796 0.33499 -0.68813 -0.09097 -0.14747 0.4885 0.22796 0.21755 -0.4502 -0.55695 0.12639 -0.17417 0.12595 -0.58226 0.27537 -0.1509 0.30977 -0.21992 -0.18776 -0.43976 0.14583 -0.026323 -0.55739 0.21221 
different -0.045633 -0.18704 0.14382 -0.20403 0.087056 0.31159 0.047705 -0.40371 -0.22342 -0.39455 0.067707 0.18353 -0.016484 0.11923 0.4037 0.069402 0.41711 -0.26752 -0.38162 -0.44093 0.24049 0.36361 -0.12828 -0.30385 -0.25987 0.023846 0.017305 0.16873 0.43433 0.11259 0.08859 0.24007 0.13692 0.2781 -0.14414 -0.41876 0.020568 0.074355 -0.58127 0.43038 -0.28674 0.3499 0.14775 -0.062408 0.072219 -0.19787 0.14445 0.12201 0.30142 -0.041971 -0.35658 -0.13778 -0.30606 -0.23435 0.072882 0.14143 0.39521 -0.23674 0.14913 -0.58459 -0.22095 -0.042343 0.2519 0.16761 -0.28253 0.023075 -0.36654 -0.083624 0.038315 0.17709 0.2904 0.04393 0.50324 0.012923 -0.11624 0.54887 0.079628 0.25026 -0.78062 -0.12587 -0.12324 0.4884 0.11351 0.18291 -0.64866 -0.4537 0.077055 -0.41233 0.10547 -0.39564 0.34484 -0.19321 0.30756 -0.35368 -0.3008 -0.4121 0.03813 -0.090079 -0.43398 0.10832 
differences 0.062725 -0.18964 0.16255 -0.11703 0.18257 0.11788 0.03175 -0.28814 -0.19579 -0.28576 0.064058 0.27805 0.0055882 0.12527 0.48553 0.1613 0.41841 -0.39537 -0.49804 -0.20955 0.20107 0.56434 -0.042632 -0.29113 -0.47775 -0.025543 -0.017438 0.14117 0.29796 -0.013794 -0.081526 0.094556 0.041392 0.25259 -0.083782 -0.32129 0.031816 0.04905 -0.53371 0.43616 -0.25472 0.25603 0.095868 -0.059341 -0.095401 -0.19733 0.10793 0.017325 0.28239 0.048876 -0.32614 0.1522 -0.25744 -0.2835 0.034099 0.11455 0.39682 -0.24961 0.1983 -0.54446 -0.098828 -0.11075 0.24323 0.0446 -0.068555 -0.055773 -0.35607 -0.09229 -0.0051779 0.055696 0.16563 0.014189 0.35282 -0.085825 -0.081329 0.51019 0.20826 0.093346 -0.60804 -0.079648 0.037 0.3887 0.12312 0.15414 -0.44429 -0.41197 0.040567 -0.55052 0.011685 -0.2336 0.31386 -0.12498 0.29585 -0.33884 -0.3886 -0.17772 0.0088718 -0.15391 -0.23038 0.084023 
some 0.24851 0.11506 -0.071774 -0.0097552 0.08299 0.42229 -0.035535 -0.12459 -0.051406 0.056526 -0.030055 -0.01261 -0.3407 0.15647 -0.093157 0.0014169 -0.033795 -0.25225 -0.19293 -0.14964 0.3723 0.21812 0.098276 -0.51473 -0.22345 -0.012358 -0.047921 0.2355 0.16464 0.28242 0.17849 0.16231 0.036755 -0.068803 0.11405 -0.31474 -0.064733 -0.025653 -0.033332 0.26463 -0.040682 0.24882 0.020839 -0.32237 0.12157 0.41401 0.16041 -0.050606 0.35842 -0.21839 -0.24143 0.19032 -0.18358 -0.30211 0.26123 -0.0026969 0.093095 0.0020358 0.32511 0.021744 0.16648 -0.061368 -0.10467 0.18635 0.017328 -0.14364 -0.31663 -0.077681 -0.050544 -0.11061 0.25881 -0.017001 0.24726 -0.050032 0.29395 -0.051409 -0.0022153 0.24837 -0.19332 -0.032365 0.17971 0.15439 0.044945 -0.0052795 0.10633 -0.11161 0.39962 -0.22707 0.048104 -0.19171 0.34143 0.13108 0.20917 -0.12346 -0.13596 -0.21499 0.33798 -0.10298 -0.24208 0.45083 
not 0.1215 0.15677 -0.11565 0.15882 0.061532 0.16503 -0.15654 -0.38236 0.062158 0.28791 -0.19289 0.046119 -0.44759 -0.014239 -0.090272 -0.099816 0.1103 -0.16469 -0.10089 -0.11397 0.34244 0.026301 -0.11448 -0.59117 -0.29791 -0.091987 0.010867 -0.22667 0.2883 0.18025 0.20993 0.10877 0.034868 0.13157 0.023726 -0.15783 -0.048918 -0.17078 0.14285 0.14329 -0.067854 0.13243 0.0028137 -0.21898 0.31018 0.24298 -0.006509 0.16094 0.1656 -0.27441 -0.17705 -0.046694 -0.38498 -0.20973 0.19392 -0.084336 0.013353 -0.10274 0.3078 0.018546 0.0021252 0.027674 -0.089621 0.10129 -0.15166 0.041316 -0.092466 0.16633 -0.048205 -0.012492 0.10795 -0.19089 0.16871 -0.02937 0.13045 0.026501 -0.15615 0.065196 -0.31224 -0.24471 -0.0093798 0.077671 -0.33522 0.051121 -0.022388 -0.15718 0.12914 0.15921 0.31532 -0.15722 0.23855 -0.048351 0.059953 0.11848 -0.37384 -0.38448 0.0010448 -0.1279 -0.25496 0.23228 
salinity 0.3855 0.15757 0.51903 0.21263 0.2216 -0.26295 -0.15683 -0.39729 -0.015569 0.051231 -0.27761 0.38702 -0.41312 0.019385 0.358 -0.50642 0.47314 -0.3283 -0.61891 0.24955 0.21108 0.38561 0.14202 -0.17751 -0.48396 -0.23859 0.15402 0.085858 -0.11924 -0.19096 -0.20785 0.18216 -0.081437 0.17518 0.028411 -0.081344 -0.12947 -0.35522 -0.12436 0.036257 -0.28388 0.40114 0.097156 0.1169 0.0048977 0.097112 -0.17252 -0.15335 0.60724 0.059341 -0.062328 0.50112 -0.73783 -0.13992 -0.052505 -0.035561 -0.03199 -0.20673 0.66044 0.092204 0.11803 -0.1473 0.038657 0.1547 -0.0675 -0.043212 -0.41877 0.036892 -0.031103 -0.10684 -0.36905 0.11695 0.28575 0.08943 0.14792 0.60757 0.13083 -0.28242 -0.10998 -0.61266 -0.071487 -0.055833 -0.30956 0.16823 0.16588 -0.55265 0.16135 -0.57441 0.21426 -0.11373 0.43729 -0.26576 -0.029726 -0.17828 -0.65158 0.056742 -0.29629 -0.26672 -0.042165 -0.21781 
waters 0.37305 0.18928 -0.03473 0.43542 -0.006153 -0.33839 -0.19199 -0.37276 -0.19049 0.1662 -0.10201 0.30915 0.097525 -0.3856 0.37234 -0.16576 0.034263 -0.36712 -0.3948 -0.052844 -0.12312 0.4725 -0.20166 -0.2391 -0.42831 0.24229 0.24189 -0.36815 0.14508 -0.22019 0.17818 0.13128 0.10502 0.3106 -0.1346 -0.38129 0.090892 -0.1376 -0.2698 -0.068299 0.040771 -0.23291 -0.19158 -0.36642 0.18015 -0.31158 -0.041852 -0.094701 0.66401 -0.058494 -0.17125 0.2272 -0.58377 -0.3899 -0.56972 -0.46536 0.14024 -0.54775 0.53354 0.22853 0.32761 -0.3137 -0.064712 -0.055525 -0.1023 0.14733 -0.11999 -0.43357 -0.2345 0.44584 -0.29576 0.051035 0.28992 -0.13888 0.25191 0.081471 0.40365 -0.54944 0.013783 -0.60138 0.11911 0.21685 -0.014099 0.26739 -0.1588 -0.0532 0.19953 -0.20968 0.21435 -0.34352 0.31654 -0.12049 0.18319 -0.11186 -0.87636 0.11887 -0.52662 0.074818 -0.0053097 -0.2366 
need 0.097742 -0.10258 0.26417 0.48043 -0.36232 0.11737 -0.49561 -0.37061 -0.02201 -0.098113 -0.38169 0.33662 -0.39446 -0.33697 0.093045 -0.25796 -0.17109 -0.053817 -0.69381 0.044464 0.11617 0.44456 0.15384 -0.30571 -0.10947 -0.17454 0.15408 0.32582 0.18621 -0.010968 0.14193 0.27577 -0.10763 0.14246 -0.13488 -0.57427 0.18242 -0.1573 0.29095 -0.26877 -0.015676 0.12625 -0.10453 -0.24341 0.56336 0.26234 -0.35217 -0.31684 0.29178 -0.59032 0.17311 -0.015652 -0.27886 0.058342 -0.32012 -0.36738 -0.16015 0.17258 0.18706 -0.047239 0.11679 0.10907 0.18404 0.28616 -0.1409 0.1981 0.031689 0.037602 -0.25399 -0.16009 -0.040657 0.19262 0.72324 -0.063143 0.38016 0.45467 0.11171 -0.019875 -0.28694 -0.32649 -0.068825 -0.17186 -0.61612 -0.13267 -0.46363 0.18433 0.25703 -0.23 0.33857 0.079087 0.34259 -0.047342 0.16335 -0.27264 -0.27827 -0.13726 -0.1296 -0.21838 -0.10416 -0.29967 
most 0.38652 0.16775 -0.26561 0.26262 0.14984 0.10939 0.21912 -0.2672 -0.3188 0.23285 -0.1387 0.073388 -0.21332 0.20243 0.20245 -0.15999 0.22278 -0.068144 -0.27252 -0.012446 0.11484 0.21065 0.04169 -0.36367 -0.30451 0.17536 0.17014 -0.28719 0.2803 0.065708 0.049128 0.17378 0.091764 0.1596 -0.26598 0.043685 -0.057906 -0.078577 -0.13138 0.35228 -0.063458 -0.14024 0.15205 -0.18601 0.14182 -0.0093935 -0.096046 -0.24697 0.31802 0.08203 -0.40906 -0.071412 -0.36684 -0.32033 -0.036925 0.06768 0.16395 -0.30205 0.21646 -0.14552 -0.2508 -0.3115 -0.29808 -0.018556 -0.39999 -0.15473 -0.20302 -0.14268 -0.12996 0.25495 0.057741 -0.21204 0.051197 -0.031512 0.29808 0.095423 0.076596 -0.24294 -0.33561 -0.27296 -0.14512 0.11511 -0.022998 0.35269 -0.13146 -0.29693 0.35241 -0.31956 -0.031372 -0.27843 0.30644 -0.22394 0.12073 -0.041264 0.030367 -0.19011 -0.10548 -0.084474 -0.43719 0.34927 
polyps 0.07663 -0.035056 -0.16424 0.26045 -0.082384 0.5067 -0.35821 -0.40359 -0.10795 -0.31401 0.032107 0.087649 -0.16042 0.14821 -0.17589 -0.149 -0.17795 -0.32286 0.1659 -0.68109 0.43548 0.11828 -0.020121 -0.73018 0.16759 -0.34961 -0.060966 -0.024718 0.34158 0.25582 0.59082 0.42898 0.11461 0.049279 -0.17933 -0.62449 -0.056368 0.15207 0.045487 -0.15842 -0.12495 0.25697 -0.077236 -0.27165 0.41652 -0.1462 0.33475 0.11573 0.27946 -0.47186 -0.24263 -0.59397 -0.23794 -0.40562 -0.0245 -0.21049 -0.023787 0.30564 0.27285 -0.17204 0.2719 0.00065907 -0.038112 0.57457 -0.37661 0.030277 -0.063849 0.031057 -0.17548 0.50308 -0.11044 0.19116 0.64462 0.33932 0.15172 0.042487 -0.38469 0.63887 -0.7657 -0.18627 -0.20212 0.3049 -0.36279 0.029202 -0.60541 -0.29925 0.28036 0.034887 0.17384 -0.64039 0.44722 0.13868 0.33917 -0.39388 -0.36663 -0.8739 0.19239 -0.25889 -0.54778 0.15378 
environment 0.1313 -0.066386 0.066289 0.54913 0.098735 0.29078 -0.32411 -0.25217 -0.20464 0.035887 -0.15951 0.14735 -0.34111 0.39812 0.24693 -0.31365 0.13135 -0.35208 -0.36637 -0.25455 0.16462 0.55174 0.44482 0.10955 0.10615 0.12494 0.19028 0.38816 0.023188 0.018866 -0.18088 0.28247 -0.062045 0.11993 -0.028357 -0.39083 -0.087472 0.17263 -0.21336 0.42258 -0.19808 0.3769 0.35552 -0.11781 0.13347 0.18341 0.026945 -0.02034 0.73545 -0.063859 -0.30701 0.48851 -0.18263 -0.33824 -0.0064429 -0.098677 0.029391 -0.067467 0.34774 -0.12562 -0.11503 -0.26981 0.11833 0.13252 -0.14323 -0.062098 -0.12218 0.10042 0.16445 -0.28886 0.17169 -0.14378 0.39256 0.22033 0.27767 0.25272 0.12091 0.21206 -0.14817 -0.14179 0.11751 -0.078934 -0.22735 -0.081743 -0.066743 -0.074067 0.43578 -1.0916 -0.29296 0.095628 0.37709 -0.0046731 -0.18908 -0.68324 -0.054276 -0.13546 0.41497 -0.40586 -0.10836 0.52852 
up 0.11818 -0.13004 -0.19699 0.29495 0.11056 0.09121 -0.25803 -0.32865 -0.054985 -0.15353 0.034316 0.15712 -0.066177 0.074015 -0.054487 0.059844 -0.12789 -0.39972 0.025647 -0.28079 0.20382 0.26908 0.074999 -0.87521 -0.34617 -0.40686 -0.10924 -0.28261 0.21796 0.031811 0.3068 -0.058502 0.13417 -0.02447 -0.21468 -0.41807 0.056336 -0.017745 0.12378 -0.21581 0.020688 0.016038 -0.22682 -0.14581 0.13298 -0.14587 0.39577 -0.11062 0.10417 -0.41163 -0.2947 -0.38282 -0.40764 -0.22792 -0.1769 -0.23712 0.11854 0.15882 0.09552 -0.12329 0.33311 0.014884 -0.17569 0.30675 -0.21312 -0.063645 -0.16301 -0.14567 -0.27197 0.45524 -0.25396 0.13309 0.29333 0.067919 0.10443 0.0047854 -0.19019 0.21921 -0.46403 -0.08923 -0.0038011 0.25309 -0.2096 -0.056676 -0.34384 -0.15507 0.10347 0.26802 0.18697 -0.51813 0.35425 0.036671 0.30388 -0.13295 -0.60006 -0.42447 -0.14667 -0.12429 -0.3563 0.044893 
so 0.045092 0.098614 -0.020589 0.16418 -0.083949 0.057744 -0.22836 -0.23635 0.040538 0.019244 -0.063801 0.063365 -0.30123 -0.036219 0.095901 -0.052972 0.015646 -0.30821 -0.15798 -0.11639 0.15262 0.28805 0.034295 -0.36917 -0.14186 -0.088049 -0.057214 0.079362 0.15979 0.04931 0.14751 0.17408 0.024935 0.13526 0.049577 -0.40839 0.056879 -0.011592 -0.039864 0.147 -0.011925 0.12923 0.00062246 -0.22322 0.18785 0.15903 -0.029114 0.023864 0.26797 -0.32265 -0.059121 0.20194 -0.19153 -0.13895 -0.037008 -0.15996 -0.0023364 -0.077294 0.21029 -0.028304 0.11436 -0.012846 0.023003 0.099873 -0.059855 0.072581 -0.13619 0.015356 -0.067328 -0.073482 0.071911 0.03417 0.29095 -0.055399 0.17149 0.1103 0.045748 0.12089 -0.21528 -0.1563 0.12663 0.074933 -0.22871 -0.041275 -0.12015 0.0078418 0.25894 -0.20457 0.12462 -0.086335 0.2669 0.026883 0.12932 -0.10312 -0.41766 -0.22947 -0.05207 -0.11337 -0.076825 0.036943 
what -0.065914 -0.056966 0.039363 -0.077271 0.075318 0.16384 -0.12701 -0.24809 -0.054538 -0.056011 -0.0056873 0.040091 -0.17605 0.14773 0.17009 0.23257 0.19911 -0.2639 -0.29503 -0.27535 0.31165 0.42708 -0.021611 -0.50158 -0.30819 -0.066764 -0.041496 0.069194 0.31425 0.11986 0.014143 0.13879 -0.054435 0.29227 -0.074493 -0.31509 0.10811 0.031947 -0.28666 0.33909 -0.32317 0.131 0.10627 -0.080471 0.047467 -0.082367 0.14912 0.12927 0.17981 -0.038369 -0.23222 0.13037 -0.23241 -0.27857 0.16072 0.12057 0.28477 -0.09711 0.12833 -0.27713 -0.066834 -0.027178 0.062422 0.014242 -0.14229 -0.023837 -0.19639 -0.0612 -0.033091 -0.10905 0.31097 0.025627 0.31758 -0.095054 -0.0047666 0.2871 0.034746 0.24863 -0.45932 -0.11854 0.090573 0.22541 -0.0033094 0.084752 -0.41978 -0.3781 0.13555 -0.2905 0.10669 -0.18476 0.22662 -0.087361 0.20596 -0.077913 -0.34399 -0.34449 0.10328 -0.061446 -0.28581 0.17986 
storms 0.43751 0.30509 0.39282 0.10077 0.21423 -0.25191 -0.14312 -0.36806 -0.086775 0.073167 -0.30198 0.23322 -0.37589 0.11039 0.25601 -0.49182 0.46486 -0.43402 -0.50564 0.13638 0.23508 0.40031 0.21627 -0.33985 -0.46414 -0.26362 0.059136 0.075987 -0.22777 -0.20309 -0.18031 0.17061 -0.029896 0.23648 -0.036741 -0.17045 -0.28319 -0.29486 -0.058049 0.021724 -0.18007 0.36249 0.029611 0.19677 0.029068 0.044665 -0.047558 -0.19269 0.57742 0.255 0.0076853 0.56436 -0.59731 -0.28611 0.1254 0.078315 -0.064744 -0.073251 0.74209 0.18271 0.0081344 -0.03753 -0.050323 0.17438 -0.05166 -0.14776 -0.40841 0.14166 -0.11171 0.048875 -0.42148 0.16248 0.2485 0.22752 0.20477 0.55798 0.060649 -0.0031452 -0.071875 -0.57404 -0.057584 -0.063038 -0.29226 0.25171 0.26279 -0.75749 0.20898 -0.47866 0.055571 -0.23866 0.48432 -0.16312 -0.035465 -0.21355 -0.55843 0.0074003 -0.32861 -0.26311 0.017178 -0.12941 
food 0.036996 0.11462 0.078765 0.36253 -0.19015 0.34598 -0.54346 -0.41259 0.26585 0.082828 -0.19745 0.0043328 -0.69173 0.1438 -0.035628 -0.27528 0.00039159 -0.40232 -0.096213 -0.36049 0.23076 0.17597 0.13954 -0.10425 0.17068 -0.14819 0.033504 0.41342 0.074103 0.19448 -0.0024776 0.26492 0.01218 0.021349 0.10875 -0.51312 0.19183 0.13568 0.094654 0.27027 -0.34801 0.49398 0.21293 -0.12303 0.47414 0.30639 0.27923 0.27187 0.72223 -0.42573 -0.31775 0.33333 -0.52775 -0.08612 0.023858 -0.16699 -0.029548 -0.018 0.34057 0.11148 0.10359 -0.15588 0.058525 0.43305 -0.20812 0.14551 -0.21409 0.22584 0.26659 -0.48107 0.31453 0.074497 0.46303 0.26 0.36192 -0.074759 -0.2351 0.3577 -0.069084 -0.26384 0.2609 -0.091117 -0.4326 -0.18994 0.087275 0.2184 0.51854 -0.408 0.16093 0.25368 0.39296 -0.24755 -0.3532 -0.14347 -0.53447 -0.44507 0.44699 -0.32174 -0.030552 0.47464 
temperatures 0.019019 -0.18486 -0.023078 0.36903 -0.13305 -0.19962 -0.39474 -0.081761 -0.059151 -0.17568 -0.099273 0.27475 -0.051288 -0.14667 0.43008 0.22653 -0.054642 -0.39146 -0.55115 0.11269 0.060657 0.73841 0.21206 -0.49512 -0.5911 -0.31187 0.078531 0.092839 -0.021631 -0.095176 -0.20002 -0.032707 0.026606 0.24463 -0.13023 -0.51861 0.27485 0.078675 0.0059229 -0.065708 0.050894 -0.16268 -0.23324 -0.16666 0.15322 -0.039106 -0.3082 -0.29623 0.25387 -0.29853 0.011437 0.40862 -0.18217 0.09421 -0.39686 -0.27451 0.085515 -0.1169 0.086081 -0.33652 0.0097668 0.065002 0.13699 -0.0021294 0.089592 0.059444 -0.16783 -0.15264 -0.18078 -0.21521 -0.030898 0.011106 0.36886 -0.24394 0.15807 0.41141 0.29126 -0.024794 -0.22721 -0.033619 0.19087 0.21088 -0.37212 0.056059 -0.35222 0.083634 0.24067 -0.54496 0.0027226 -0.083932 0.2606 0.10241 0.27439 -0.39799 -0.52731 -0.04278 -0.20681 -0.15466 -0.080045 -0.25538 
process -0.036899 -0.083566 0.19235 0.44382 -0.36597 -0.087072 -0.6446 -0.30531 0.05506 -0.23889 -0.36982 0.29221 -0.40623 -0.31486 0.11944 -0.13572 -0.15692 -0.2642 -0.55782 0.028575 0.168 0.50333 0.14699 -0.25264 -0.31068 -0.27467 0.18429 0.1913 0.054663 0.022067 -0.074045 0.21637 -0.0024186 0.20606 -0.075766 -0.60723 0.26681 -0.10069 0.27251 -0.22525 0.017808 0.11718 -0.3157 -0.098156 0.48392 0.089968 -0.31741 -0.03729 0.30461 -0.44535 0.099435 0.12305 -0.36845 0.16786 -0.36537 -0.40588 -0.037842 -0.035351 0.18341 -0.12222 0.17529 0.18421 0.18579 0.28028 -0.050896 0.27012 -0.032683 -0.06879 -0.2156 -0.30108 -0.041085 0.22445 0.68689 0.080317 0.3545 0.42662 0.070399 0.056876 -0.2476 -0.27975 0.062314 -0.12624 -0.67556 -0.069377 -0.35822 0.18298 0.18944 -0.25047 0.3648 0.19987 0.46171 -0.1439 0.05486 -0.28659 -0.54282 -0.12916 -0.13698 -0.20204 0.0034639 -0.21494 
will 0.043227 0.16022 0.076052 0.00025444 -0.14639 0.021003 -0.25 -0.34227 0.23705 0.15595 -0.1404 0.02774 -0.46109 -0.021325 0.11314 -0.043042 0.23888 -0.27327 -0.11355 -0.14018 0.27708 0.19057 -0.11482 -0.51773 -0.25667 -0.1626 0.014067 0.048205 0.06315 0.098909 -0.062978 0.071082 0.042852 0.14218 0.14922 -0.27983 0.13879 -0.01122 0.054139 0.20549 -0.27168 0.22396 0.062237 0.0049257 0.19202 0.28595 0.022268 0.24529 0.22827 -0.27189 -0.06293 0.3156 -0.54804 0.1071 0.15726 0.016113 -0.071031 -0.10374 0.33298 0.024893 -0.013371 0.11152 -0.032324 0.13046 -0.065926 0.12025 -0.27323 0.15911 0.091605 -0.26189 0.21734 -0.044765 0.21322 -0.088471 0.0071842 0.20012 -0.15581 0.17047 -0.17427 -0.31837 0.074472 0.13851 -0.3552 -0.03019 0.091585 -0.11538 0.12625 -0.090707 0.29306 0.0012895 0.19248 -0.13198 -0.03058 0.053587 -0.65009 -0.35944 -0.079946 -0.11095 -0.11367 0.04328 
live 0.1969 0.12526 0.2888 0.10415 -0.33069 0.29016 -0.090581 -0.56517 -0.35004 -0.12006 -0.31249 0.49202 -0.40809 -0.24176 -0.15793 -0.20876 -0.11597 -0.02007 -0.65036 -0.040821 0.46932 0.38787 -0.086279 -0.41833 -0.14968 0.024343 -0.10002 0.25605 0.52291 0.097275 0.53392 0.49717 -0.09422 0.15702 -0.2686 -0.4041 -0.054886 -0.27987 0.066798 -0.1306 0.016506 0.4853 -0.12578 -0.2547 0.55682 -0.01319 -0.018764 -0.2353 0.14743 -0.46202 0.11107 -0.53864 -0.23294 -0.43693 -0.0029922 -0.1527 0.086094 0.2674 0.29757 -0.25503 0.12605 -0.027403 0.23353 0.38682 -0.25567 0.12961 0.13135 0.093299 -0.3933 0.36895 0.011321 0.35736 0.97082 0.060718 0.49133 0.53242 0.027686 0.24802 -0.76508 -0.5257 -0.16769 -0.014248 -0.37356 0.08983 -0.69523 -0.14844 0.21031 0.092836 0.54649 -0.15434 0.53457 -0.026711 0.3116 -0.10607 -0.06267 -0.32695 -0.10522 -0.16892 -0.038 -0.14789 
sensitive 0.20664 -0.074927 0.29851 0.4031 -0.17167 -0.13856 -0.34402 -0.19289 -0.12697 -0.21271 -0.29089 0.36062 -0.26426 -0.20057 0.28262 -0.15479 -0.016054 -0.25291 -0.81599 0.24584 0.18902 0.55177 0.27036 -0.24093 -0.42209 -0.26259 0.13607 0.23846 -0.023235 -0.048155 -0.1432 0.23291 -0.038886 0.21849 -0.061318 -0.39703 0.097267 -0.19099 0.15549 -0.19619 -0.088866 0.10462 -0.22063 -0.15519 0.28084 0.052778 -0.43231 -0.36493 0.37059 -0.1411 0.061249 0.27928 -0.25268 -0.06122 -0.32759 -0.27126 -0.0096688 -0.051132 0.31695 -0.2097 0.093767 0.11812 0.12108 0.26841 0.0036792 0.025965 -0.17147 -0.076102 -0.25843 -0.18887 -0.14215 0.20786 0.60013 -0.045254 0.32093 0.63503 0.28151 -0.084147 -0.21652 -0.24376 8.9849e-05 0.0077709 -0.47927 0.036495 -0.30789 -0.066827 0.25183 -0.58406 0.18442 0.022352 0.41971 -0.036923 0.15971 -0.36166 -0.3405 0.020449 -0.10254 -0.20935 -0.052697 -0.24916 
healthy 0.39206 -0.172 0.3096 0.3773 0.16957 0.27756 -0.027554 -0.5 0.001929 -0.18674 -0.065998 0.41322 -0.50051 0.11517 0.074478 -0.33032 0.16131 -0.27991 -0.38737 0.11864 0.37403 0.19423 0.039897 -0.25697 -0.089304 -0.29953 0.0013857 0.3532 0.1949 0.0078172 0.20074 0.42668 -0.1637 -0.10504 0.22877 -0.15876 -0.05075 -0.10583 -0.00957 0.15047 -0.26206 0.62104 0.31446 -0.093218 -0.035728 0.47728 0.071114 -0.218 0.35991 -0.48289 -0.17119 0.068537 -0.43825 -0.35703 0.12718 -0.077556 -0.098204 0.098612 0.5004 -0.18453 0.38681 -0.1968 -0.048129 0.51953 0.058901 -0.028277 -0.43676 0.19642 0.034812 0.002905 -0.24452 0.096509 0.47652 -0.012363 0.12712 0.40946 -0.051555 0.05847 -0.34675 -0.32352 -0.047136 -0.024819 -0.38692 -0.23174 0.26602 -0.076694 0.22988 -0.62779 0.10963 0.2354 0.20427 -0.13651 0.10226 -0.069099 -0.34371 -0.36851 0.082755 -0.50665 -0.063695 0.038129 
0 0.58375 0.0016237 -0.56786 0.62382 -0.23157 -0.30471 -0.023676 -0.19081 -0.23521 -0.11276 -0.25889 0.2536 0.096599 -0.083725 0.33513 -0.0042682 0.012615 -0.14868 -0.60974 0.11151 0.053151 0.47485 -0.12834 -0.45343 -0.69593 -0.071532 0.32162 -0.50272 -0.016694 0.052792 -0.18737 0.071354 0.36107 0.10235 -0.14888 -0.33582 0.0067342 0.014327 0.16553 -0.071115 0.13438 -0.48852 -0.18722 -0.22782 0.36828 -0.047187 -0.48433 -0.46623 0.34348 -0.12497 -0.058734 0.087975 -0.53338 0.084139 -0.60268 -0.4731 -0.041655 -0.47762 0.1994 -0.39325 -0.10648 -0.33219 -0.35356 0.083585 -0.20397 0.22161 -0.40352 -0.42761 -0.23021 0.23008 -0.16174 -0.17398 0.16018 -0.28492 0.25584 0.15934 0.098015 -0.35415 -0.29224 -0.24547 -0.0034384 0.23428 -0.41444 0.52735 -0.29604 0.17679 0.35992 -0.43535 0.20408 -0.30525 0.37096 -0.22572 0.21551 -0.28778 -0.48186 -0.19634 -0.40409 0.016 -0.6198 -0.032734 
how 0.24704 -0.1167 0.25274 0.308 0.18452 -0.077984 -0.13182 -0.34031 -0.25349 0.20755 -0.26935 0.23693 -0.16645 0.14356 0.20102 -0.10821 0.28179 -0.31203 -0.68148 -0.025205 0.16526 0.6581 0.27303 -0.367 -0.22869 0.092316 0.0042802 0.10635 0.01588 -0.31283 -0.23998 -0.021867 -0.09112 0.18326 -0.035454 -0.37146 -0.2756 -0.12447 -0.10342 0.31853 -0.11732 0.29122 0.2119 -0.018227 -0.050096 0.18194 0.10339 -0.2351 0.21581 -0.018938 0.1474 0.36861 -0.26562 -0.30718 0.12648 -0.13902 -0.063231 0.14965 0.42536 -0.029774 -0.073784 -0.093754 0.16539 -0.15916 -0.027863 -0.10528 -0.085984 0.2445 -0.14974 0.072887 -0.0081305 -0.096331 0.25642 -0.11659 0.017617 0.41414 0.20263 0.045015 -0.33574 -0.28915 0.11628 -0.066783 -0.16134 -0.13135 -0.2753 -0.31831 -0.091702 -0.53948 -0.062022 -0.16048 0.36204 0.11243 -0.0092397 -0.59039 -0.32796 0.074907 -0.075078 -0.19559 -0.034777 0.19587 
bleached 0.16824 -0.010926 -0.18634 0.16088 -0.1608 0.19733 0.072263 -0.29474 -0.091798 0.10288 -0.18088 -0.075333 -0.22365 0.17139 0.17769 0.13828 0.20546 -0.18012 -0.33303 -0.31781 0.12687 0.41374 -0.050882 -0.44729 -0.08431 0.1179 0.11216 0.10498 0.20096 -0.016262 -0.072964 0.12688 0.067981 0.26017 -0.047937 -0.33523 0.11143 0.072451 -0.13566 0.48976 -0.2095 0.021991 0.29918 -0.028568 0.18592 0.24071 0.0052921 0.065882 0.20685 -0.16037 -0.17845 0.2026 -0.25482 -0.095596 0.29675 0.13953 0.12668 -0.12716 0.21465 -0.23712 -0.34656 -0.05567 -0.10465 -0.0057836 -0.27843 0.039964 -0.22913 0.094315 0.015225 -0.11067 0.52761 -0.16843 0.28476 -0.14283 0.088252 0.20233 -0.062913 0.28604 -0.36756 -0.14475 0.013048 0.13476 -0.23163 0.11823 -0.053279 -0.095163 0.092032 -0.3562 -0.018364 -0.0656 0.11368 -0.21147 -0.0041591 -0.17618 -0.20399 -0.40782 0.057765 -0.11508 -0.34758 0.4503 
leads 0.067638 -0.25587 0.086061 -0.007657 0.066013 0.095858 -0.14594 -0.24713 -0.103 -0.20617 -0.0071614 0.15897 0.018939 0.025168 0.38994 0.21955 0.37177 -0.40411 -0.54511 -0.28439 0.15418 0.56997 -0.077042 -0.28258 -0.46443 -0.052459 0.10413 0.12442 0.14779 -0.091971 -0.1771 0.049363 -0.052263 0.39344 -0.040643 -0.21956 0.1935 0.0098761 -0.3936 0.33154 -0.39441 0.099008 0.10256 0.079224 -0.028183 -0.22581 0.035291 0.15925 0.35655 0.17536 -0.33968 0.26904 -0.25429 -0.27659 0.15605 0.10567 0.43605 -0.30295 0.26045 -0.47287 -0.14927 0.038262 0.18188 0.1099 -0.051399 -0.049857 -0.23621 -0.029618 0.019055 -0.10909 0.31956 0.013388 0.41245 0.014136 -0.099377 0.49729 0.12668 0.16859 -0.41937 -0.08451 0.02177 0.3158 -0.090331 0.15429 -0.19704 -0.3499 -0.081035 -0.54807 -0.04139 -0.036582 0.12337 -0.2555 0.095696 -0.27287 -0.44773 -0.24525 0.081445 -0.20618 -0.22223 0.13226 
was 0.19753 -0.034616 -0.48799 0.1435 -0.27441 0.03825 -0.022532 -0.22204 -0.33215 0.20581 -0.1669 -0.23422 -0.031206 0.02097 0.40135 0.24357 0.21306 -0.12717 -0.60967 -0.17498 -0.21275 0.73785 0.20156 -1.0356 -0.50503 0.032456 0.20179 -0.20114 0.10962 -0.047449 -0.11182 -0.21715 0.17087 0.47459 -0.4409 -0.42524 0.30485 0.069283 0.067547 0.16217 -0.064962 -0.47682 0.021865 -0.039025 0.24902 0.046077 -0.098094 -0.48114 0.15631 0.025237 -0.17206 0.2005 -0.21488 0.045731 0.065443 0.10323 0.12937 -0.076077 0.015419 -0.21243 -0.57578 0.26406 -0.1665 -0.14553 -0.37984 -0.18397 -0.18598 -0.091203 -0.28796 0.056946 0.45799 -0.14466 0.19829 -0.30306 0.17783 0.35092 0.1805 0.073728 -0.33953 -0.024029 -0.14312 0.3875 -0.18631 0.16069 -0.36042 -0.12806 0.13591 -0.13965 -0.19709 -0.39139 0.18085 -0.043041 0.19675 -0.26153 -0.071949 -0.28532 -0.34207 0.026116 -0.48956 0.25785 
i -0.028542 -0.032219 -0.26967 -0.030758 0.16771 0.11009 -0.18394 -0.18806 -0.12468 0.12869 -0.023663 -0.18281 -0.11143 0.1102 0.086861 0.12284 0.21094 -0.25081 -0.22533 -0.2569 0.1673 0.36453 0.14363 -0.90647 -0.34648 -0.085881 -0.038859 -0.2301 0.18394 0.094599 0.044942 -0.03908 0.038786 0.29461 -0.20624 -0.36499 -0.029759 -0.0083224 -0.080834 0.2472 -0.1323 -0.096492 0.059603 -0.13136 0.040854 0.029481 0.11244 -0.12858 0.15287 -0.039282 -0.12508 0.086785 -0.18615 -0.20188 0.19699 0.013579 0.13422 -0.016269 0.12941 -0.12753 -0.18045 0.16722 -0.081104 -0.077261 -0.21191 -0.16856 -0.22119 -0.011447 -0.14243 0.073094 0.17617 -0.11605 0.13871 -0.10915 0.00059255 0.15718 0.030997 0.16685 -0.4417 -0.021927 0.0075182 0.28778 -0.055183 0.038979 -0.41229 -0.41168 0.18278 -0.084535 -0.099809 -0.47687 0.24146 0.085317 0.28062 -0.17089 -0.24871 -0.32481 -0.095183 -0.01445 -0.48379 0.21972 
energy 0.091049 0.041441 0.1421 0.37888 -0.5427 0.31863 -0.63162 -0.52356 0.20904 -0.029935 -0.38377 0.084072 -0.55714 -0.35752 0.017611 -0.1626 -0.015353 -0.23693 -0.31422 -0.34688 0.1972 0.18857 -0.25383 -0.29454 0.0040814 -0.053599 0.17174 0.37241 0.12766 0.18767 0.16384 0.37983 -0.0073882 0.15114 0.10467 -0.58292 0.3192 0.076103 0.25884 0.047043 -0.25077 0.33766 0.055335 -0.16616 0.6695 0.17026 -0.018057 0.28432 0.37759 -0.58833 0.10702 0.02853 -0.74712 0.11928 -0.12979 -0.32056 -0.13288 -0.0071522 0.33714 0.018023 0.15074 0.051081 0.13016 0.42223 -0.18268 0.46606 0.0045441 0.21584 0.014853 -0.22533 0.18211 0.2048 0.70254 0.088921 0.30628 0.19307 -0.19616 0.24241 -0.18972 -0.46522 0.037583 0.043288 -0.69756 -0.1356 -0.23435 0.37925 0.24883 -0.063254 0.50631 0.20498 0.3291 -0.1971 -0.16295 -0.0019419 -0.69086 -0.47865 0.020384 -0.12829 -0.033123 -0.075011 
more 0.044703 0.1162 -0.22268 0.023121 -0.011341 -0.070414 -0.032543 -0.32082 -0.070937 0.1379 -0.14587 -0.084353 -0.21709 -0.033782 0.29034 0.034948 0.29009 -0.17111 -0.27607 -0.044709 -0.015703 0.25727 0.081983 -0.59312 -0.41957 -0.0091539 0.083988 -0.18926 0.18859 0.017395 -0.12023 0.012199 0.14703 0.35132 -0.22938 -0.24334 0.10256 -0.010193 -0.08414 0.31534 -0.068803 -0.12467 0.11707 -0.018375 0.1624 0.0063088 -0.011014 -0.16105 0.21974 -0.0011622 -0.14121 0.24157 -0.4079 0.0089725 -0.031182 0.037807 0.11677 -0.27535 0.10601 -0.13616 -0.35321 0.02099 -0.13009 -0.10069 -0.25149 0.019632 -0.31159 0.012934 -0.058593 0.011646 0.1578 -0.098211 0.038347 -0.14062 0.086211 0.2144 0.073736 -0.083625 -0.26576 -0.22925 0.028805 0.25229 -0.17863 0.17834 -0.27474 -0.18927 0.27462 -0.14545 0.014848 -0.25954 0.24179 -0.18965 0.063172 0.025779 -0.32851 -0.26731 -0.33503 0.0070976 -0.30735 0.077093 
between 0.26961 -0.29399 0.096107 0.8299 -0.2851 -0.13299 -0.40483 -0.2483 -0.35928 -0.039688 -0.52656 0.34332 -0.2195 -0.035937 0.27896 0.030052 -0.1026 -0.21359 -1.1051 0.16461 0.16089 0.91049 0.35985 -0.24578 -0.24479 -0.075859 0.19428 0.31058 0.042758 -0.19721 -0.21622 0.21474 -0.049602 0.24752 -0.086716 -0.70671 -0.077268 -0.0229 0.23762 0.023308 0.083267 0.074247 -0.06094 -0.23449 0.45789 0.26498 -0.57796 -0.39172 0.23402 -0.29906 0.3382 0.33765 -0.013912 -0.11149 -0.15474 -0.44894 -0.14536 0.17166 0.26464 -0.36658 -0.17471 0.04249 0.22269 -0.05685 -0.042433 0.18971 0.15358 0.21715 -0.34248 -0.29434 0.041659 -0.045036 0.66838 -0.19613 0.2884 0.5844 0.26338 0.082063 -0.36693 -0.14823 0.10718 -0.17728 -0.7508 0.021942 -0.52681 0.15068 0.077333 -0.81576 0.064108 0.065047 0.4152 0.21905 0.016663 -0.89407 -0.11767 -0.018677 0.092109 -0.26537 -0.12311 0.066258 
stress 0.15347 -0.015279 0.16922 0.31311 0.050125 0.13094 -0.34646 -0.17142 0.021428 0.083715 -0.13457 0.13911 -0.48958 0.42449 0.35461 -0.18276 0.2043 -0.48727 -0.4948 -0.05177 0.2352 0.64903 0.52021 -0.17265 -0.11717 -0.1786 -0.042561 0.50923 -0.045651 -0.0070469 -0.33639 0.1369 -0.069277 0.10581 0.01546 -0.3944 0.020548 0.16557 -0.13569 0.44489 -0.36718 0.38631 0.33957 -0.091632 0.10444 0.25876 0.035935 -0.13573 0.7288 -0.12282 -0.28699 0.78294 -0.23398 -0.20887 0.065629 0.014058 0.025688 0.047292 0.36434 -0.14247 -0.12649 -0.21646 0.10038 0.17184 -0.025062 -0.2156 -0.35281 0.23734 0.20095 -0.538 0.24085 -0.081785 0.30629 0.072342 0.22747 0.34291 0.10851 0.24683 -0.16458 -0.10496 0.25848 -0.0072334 -0.29143 -0.10295 0.00020075 -0.13071 0.56004 -1.1511 -0.26686 0.12025 0.3933 0.020636 -0.15138 -0.55806 -0.2855 -0.15787 0.40307 -0.4865 -0.064655 0.40644 
has 0.026215 0.063986 -0.41885 0.1897 -0.012057 0.23514 -0.25995 -0.13739 -0.068461 0.005678 -0.05973 -0.23955 -0.109 0.061441 0.12775 -0.093472 0.050655 -0.25615 0.12608 -0.3863 0.079566 0.11855 0.20308 -0.63362 -0.034172 -0.22155 0.10106 -0.12877 0.011816 0.09935 0.12559 0.22607 0.10147 0.26979 -0.23125 -0.39957 -0.005098 0.16583 0.063909 0.063129 0.044412 -0.17036 -0.0017668 -0.13263 0.22891 0.024325 -0.10918 -0.051331 0.32795 -0.055431 -0.12977 0.098625 -0.056148 -0.10904 0.089005 -0.030956 -0.082876 -0.0741 0.2304 -0.097988 -0.20464 0.25352 -0.063541 0.12163 -0.20123 -0.054381 -0.15271 0.13009 -0.018559 0.07203 -0.0078374 -0.13368 0.13647 0.1835 0.11649 0.016458 -0.12114 0.23545 -0.33126 0.021435 -0.079888 0.28478 -0.40777 0.22487 -0.1381 -0.25451 0.35135 -0.23227 -0.28731 -0.44897 0.17991 0.12717 0.18426 -0.32471 -0.11972 -0.54381 -0.042298 -0.19412 -0.44928 0.15629 
these 0.16476 0.10316 0.090924 0.23153 0.08531 -0.027461 -0.043558 -0.23809 -0.099653 0.058879 0.016553 0.2482 -0.046289 0.043232 0.1788 -0.075088 0.041044 -0.36587 -0.26116 -0.096582 0.12453 0.40998 0.066509 -0.29808 -0.21693 0.097268 -0.15897 0.061166 0.16278 -0.11614 0.14671 0.13035 -0.026753 0.037773 -0.05836 -0.24479 -0.046658 -0.052922 -0.25051 0.12619 -0.016539 0.13758 0.069059 -0.23257 -0.0055816 -0.14453 0.13245 -0.11372 0.30344 -0.23126 -0.16455 0.14348 -0.26758 -0.3098 -0.15099 -0.12257 0.16552 -0.042623 0.23349 -0.076866 0.18029 -0.21895 -0.0068774 0.078261 -0.025243 0.024118 -0.074067 -0.018417 -0.11984 0.23925 -0.11985 0.08191 0.27074 -0.10153 0.14137 0.20217 0.17893 -0.001102 -0.23504 -0.24291 0.1815 0.1577 -0.025859 0.015303 -0.22896 -0.10276 0.24241 -0.27917 0.078628 -0.2602 0.21935 0.082112 0.16201 -0.13384 -0.44796 -0.042825 -0.11792 -0.041664 0.065158 -0.070996 
relationship 0.49216 -0.18854 0.23043 0.69121 -0.055489 0.4351 -0.2555 -0.45249 -0.43748 0.18478 -0.58462 0.049644 -0.28755 0.13463 -0.08079 -0.18227 -0.014506 -0.040469 -0.93939 -0.25281 0.22615 0.56371 0.23958 -0.18018 0.23718 0.23904 0.18783 0.70635 0.11107 -0.13763 0.031749 0.39762 -0.22047 0.082964 -0.080535 -0.59906 -0.3386 -0.011074 0.061514 0.34803 -0.12751 0.51903 0.43658 -0.1504 0.46343 0.46313 0.0087961 -0.27374 0.46174 -0.23682 0.32105 0.2047 -0.15271 -0.4207 0.41112 -0.16182 -0.17239 0.47611 0.52446 -0.090123 -0.30628 -0.18189 0.17167 0.061842 -0.14829 0.17006 0.17189 0.55525 -0.18563 -0.10521 0.20822 -0.016956 0.67864 0.041686 0.27979 0.30788 0.025113 0.3492 -0.29729 -0.29044 0.071845 -0.17324 -0.45123 -0.027497 -0.40334 -0.043656 0.13406 -0.65456 -0.057124 -0.14234 0.28155 0.21028 -0.2175 -0.83208 0.18984 -0.21308 0.43781 -0.25857 -0.21369 0.47517 
phenomenon 0.096311 -0.016473 -0.19636 0.12033 -0.070155 0.14245 0.0022901 -0.28983 -0.17523 -0.081208 -0.085826 0.08196 -0.20418 0.35013 0.24955 0.20275 0.19801 -0.28514 -0.15428 -0.40728 0.31739 0.54648 -0.17658 -0.40406 -0.19217 -0.064153 0.21474 -0.00087872 0.18154 0.029759 0.018471 0.22053 0.041075 0.35181 -0.10761 -0.17074 0.24875 0.064814 -0.24829 0.31761 -0.26267 0.05623 0.063739 0.10513 0.1721 -0.098516 0.013332 0.39705 0.28625 0.0071761 -0.44388 0.033827 -0.24718 -0.23505 0.40279 0.2407 0.37415 -0.2394 0.29555 -0.33431 -0.12402 -0.011282 -0.0013975 0.14264 -0.29228 -0.015809 -0.017002 -0.033439 0.039865 -0.12793 0.37896 -0.10457 0.42759 0.13141 0.14396 0.22892 -0.24156 0.35333 -0.4164 -0.21852 -0.1443 0.17798 -0.31345 0.33278 0.14709 -0.39915 -0.058321 -0.37069 0.048563 -0.033993 0.23799 -0.23844 0.00080508 -0.15118 -0.25716 -0.61968 0.11231 -0.23464 -0.19534 0.4942 
loses -0.031634 0.010022 -0.20052 -0.0035527 -0.20167 0.18212 -0.066174 -0.31569 -0.060899 -0.18413 -0.025657 0.16354 -0.39458 0.43358 0.32844 0.30191 0.23399 -0.35166 -0.019366 -0.40372 0.4469 0.61439 -0.21122 -0.48784 -0.21923 -0.2585 0.12254 0.053468 0.28515 0.11698 0.02601 0.28864 0.04885 0.37942 -0.09099 -0.21038 0.43968 0.18116 -0.26099 0.41067 -0.35903 0.17527 0.049953 0.14382 0.22591 -0.079716 0.010087 0.55325 0.26116 -0.1771 -0.55545 0.048382 -0.26313 -0.14016 0.42562 0.31627 0.43543 -0.24014 0.19554 -0.4876 -0.12012 -0.0080574 0.03996 0.22109 -0.31052 0.011681 -0.06673 0.002986 0.13243 -0.34207 0.51484 -0.11048 0.50892 0.10896 0.15341 0.28702 -0.37128 0.50097 -0.59315 -0.22891 -0.13973 0.21778 -0.45508 0.31471 0.17345 -0.37026 0.034268 -0.47634 0.12236 0.12656 0.30529 -0.29726 0.065423 -0.062953 -0.3655 -0.83879 0.17768 -0.3684 -0.19473 0.51091 
called 0.066027 -0.11959 0.023713 0.2378 -0.12982 0.29008 -0.32255 -0.50808 -0.15395 -0.022117 -0.2449 0.13012 -0.2371 0.011904 -0.26322 0.022513 -0.1879 -0.12507 -0.30552 -0.3863 0.29154 0.41603 -0.0088042 -0.71716 -0.039272 -0.082762 -0.089077 0.064104 0.40199 0.012325 0.30415 0.080468 -0.038573 0.04901 -0.20573 -0.5862 -0.013487 -0.023433 0.19435 -0.07923 -0.0058416 0.22665 -0.056926 -0.12138 0.38178 0.093142 0.44391 -0.087344 0.012034 -0.52461 0.021076 -0.44396 -0.29546 -0.22177 0.074882 -0.22345 0.0051279 0.49312 0.1654 0.035304 0.19915 -0.011116 0.056411 0.2559 -0.22155 0.035429 0.078194 0.048141 -0.32192 0.3099 0.10672 0.17458 0.60529 0.083387 0.21076 0.10045 -0.21525 0.39641 -0.55397 -0.28659 0.043254 -0.08252 -0.24014 -0.195 -0.58162 -0.039556 0.010982 0.27515 0.32529 -0.17669 0.38279 0.013966 0.17848 -0.23804 -0.32307 -0.38071 0.0055803 -0.18402 -0.20373 0.17721 
balance 0.60367 -0.18083 0.48596 0.85167 0.096474 -0.12623 -0.2477 -0.56369 -0.16845 0.020754 -0.40523 0.53855 -0.45315 0.12341 0.33744 -0.62771 0.30793 -0.29785 -0.812 0.27262 0.23276 0.51855 0.20696 -0.023711 -0.099641 -0.19074 0.24168 0.24953 -0.048888 -0.2516 -0.052061 0.45319 -0.16209 0.030163 0.15667 -0.25402 -0.24644 -0.18518 0.034047 0.048838 -0.29154 0.61564 0.35823 -0.031105 0.13494 0.31842 -0.31539 -0.27575 0.54493 -0.30839 0.14727 0.32088 -0.61259 -0.32987 -0.083469 -0.33074 -0.33636 0.10158 0.68105 -0.10862 0.19761 -0.31113 0.069655 0.24171 -0.070623 0.12438 -0.18373 0.34106 -0.093325 -0.024619 -0.53164 0.033117 0.52015 0.033036 0.13526 0.68285 0.060272 -0.19606 -0.26747 -0.59847 -0.18859 -0.22207 -0.70403 -0.071665 0.023083 -0.13876 0.056856 -1.0029 0.14114 0.097444 0.38776 -0.039849 -0.15581 -0.6238 -0.47238 -0.12192 -0.071046 -0.52419 -0.0591 -0.12315 
degrees 0.3473 -0.071165 -0.1283 0.68489 -0.29581 -0.27079 -0.46579 -0.043326 -0.095324 -0.25669 -0.2091 0.40119 -0.1133 -0.21909 0.30893 0.088914 -0.29613 -0.35578 -0.73298 0.30424 0.18335 0.76018 0.20718 -0.45078 -0.72455 -0.41023 0.21744 -0.0061718 -0.13456 0.02228 -0.14415 0.061206 0.11481 0.089275 -0.093729 -0.59015 0.27043 0.018941 0.31252 -0.39025 0.16539 -0.29787 -0.52655 -0.33091 0.40169 0.067516 -0.57227 -0.48419 0.46226 -0.38866 -0.041501 0.37609 -0.30167 0.098487 -0.70984 -0.5411 -0.0070323 -0.2017 0.24461 -0.23372 0.26177 -0.011487 -0.11976 0.23193 0.11253 0.14779 -0.28225 -0.43939 -0.32774 -0.21869 -0.21193 0.089209 0.50596 -0.25741 0.4419 0.34251 0.30523 -0.18345 -0.072599 -0.13601 0.24306 0.085438 -0.5503 0.19934 -0.16313 0.26267 0.49699 -0.60934 0.1804 -0.019524 0.40525 0.0066423 0.32455 -0.39056 -0.60645 0.027979 -0.20435 -0.13446 -0.19576 -0.26444 
things 0.086543 -0.0022801 0.29382 -0.068407 0.29681 0.20137 -0.071023 -0.25143 -0.073064 -0.019172 0.020683 0.17285 -0.14201 0.20357 0.19105 -0.058077 0.23011 -0.24016 -0.38822 -0.12691 0.4038 0.34133 0.16028 -0.33959 -0.26821 -0.039168 -0.038884 0.1623 0.21954 0.061433 -0.0055455 0.17099 -0.10334 0.19285 -0.043715 -0.19487 -0.11226 -0.099847 -0.34299 0.24672 -0.35506 0.27936 0.16066 -0.10577 -0.05808 -0.042828 0.085537 -0.0206 0.35429 0.03231 -0.27655 0.1763 -0.19262 -0.40471 0.10912 0.12904 0.23525 -0.041505 0.30664 -0.21355 -0.0015569 -0.0465 0.11745 0.11475 -0.068365 -0.18515 -0.30848 -0.05448 -0.036235 -0.025281 0.17218 0.0052597 0.33795 -0.044061 -0.019358 0.43463 0.12954 0.14479 -0.45016 -0.19135 0.035232 0.19063 0.065361 0.088406 -0.37129 -0.54728 0.22234 -0.50484 0.047939 -0.32797 0.23498 0.036213 0.24674 -0.28521 -0.27628 -0.1795 0.22603 -0.13546 -0.30288 0.095837 
wind 0.09071 -0.041534 -0.18127 0.1675 0.03017 -0.10059 -0.18035 -0.29129 -0.12727 0.18361 -0.063008 0.13621 0.0032824 -0.17245 0.33087 0.24785 0.15335 -0.3722 -0.37715 -0.19482 -0.081376 0.68484 -0.034247 -0.58137 -0.49973 0.18231 0.044381 -0.04131 0.12035 -0.2333 -0.096804 -0.13629 0.032066 0.25566 -0.12463 -0.45064 0.17621 0.071725 -0.28477 0.38006 0.072518 -0.11296 0.045886 -0.15393 -0.014136 0.0026421 0.20437 -0.11397 0.26292 -0.18943 -0.019198 0.39567 -0.40917 -0.098332 -0.10723 -0.18784 0.21212 -0.25967 0.1752 -0.081823 -0.040352 -0.11036 0.055901 -0.28624 0.026082 0.12298 -0.13488 -0.056877 -0.090827 0.12644 0.10107 -0.080155 0.12464 -0.2915 0.063745 0.078343 0.31259 -0.10288 -0.16181 -0.19586 0.29546 0.2837 0.0080713 -0.018936 -0.25214 0.020711 0.062111 -0.20601 -0.019923 -0.22578 0.23114 0.063808 0.16358 -0.16467 -0.614 0.0045224 -0.41041 0.059012 0.032443 0.039287 
out 0.18228 0.23179 -0.40047 0.28484 -0.23141 0.26543 -0.067465 -0.22686 0.0087175 0.1157 -0.08007 -0.14476 -0.28083 0.16214 -0.092367 -0.15993 -0.087571 -0.17398 0.022295 -0.27181 0.25276 0.053905 0.056324 -0.41525 0.082607 0.027865 -0.039242 -0.10379 0.21187 0.33322 0.17344 0.24778 0.15587 0.011836 -0.034446 -0.40721 -0.090016 0.11894 0.15331 0.22421 -0.065644 0.051085 0.13105 -0.31053 0.3002 0.20512 0.025741 -0.072922 0.20283 -0.30914 -0.13532 -0.066041 -0.17703 -0.19154 -0.010937 -0.10435 -0.22492 0.06773 0.10468 -0.086047 -0.10596 -0.21401 -0.25588 0.22098 -0.26081 0.064193 -0.14869 0.086547 -0.071532 0.10957 0.211 -0.079744 0.18389 0.046214 0.1809 -0.10644 -0.17683 0.23383 -0.42767 -0.028884 0.0063248 0.16834 -0.25248 0.074036 -0.33037 0.15089 0.48609 -0.1098 0.044674 -0.24873 0.2718 -0.017185 0.0582 -0.16489 -0.080867 -0.48052 0.20563 -0.20196 -0.46471 0.40431 
due 0.33734 0.13323 0.15505 0.13049 -0.30579 0.05893 0.16437 -0.25804 -0.12646 0.10885 -0.33274 0.033202 -0.21573 0.17558 0.27248 0.09064 0.30857 -0.27308 -0.50874 -0.32275 0.0078054 0.60505 -0.2172 -0.21061 -0.10067 0.24848 0.075507 0.38512 0.05798 -0.11028 -0.1449 0.12254 0.047906 0.23391 0.027698 -0.45644 0.050775 0.10995 -0.17702 0.53751 -0.28102 0.20489 0.27261 0.070539 0.19493 0.20707 0.020433 0.12693 0.20792 -0.11073 0.045661 0.38482 -0.49781 -0.029497 0.26346 0.19977 0.064812 -0.0084089 0.39552 -0.082377 -0.28934 -0.22376 -0.048824 -0.075577 -0.23715 0.12948 -0.13662 0.11681 -0.034425 -0.088206 0.44066 0.013596 0.3397 -0.14354 0.19922 0.3392 -0.045802 0.32888 -0.19158 -0.33697 0.06277 -0.020198 -0.10632 0.16421 0.00043899 -0.13984 0.012576 -0.43484 0.14949 0.08192 0.16158 -0.2846 -0.11941 -0.257 -0.27599 -0.07272 -0.078811 -0.032639 -0.035394 0.2666 
get 0.005137 0.11239 -0.0095391 0.097149 -0.18371 0.12842 -0.31369 -0.27513 0.20408 0.11616 -0.098551 0.012443 -0.3707 -0.062608 0.035966 0.055505 0.0030617 -0.30395 -0.086108 -0.18451 0.20448 0.29768 0.037504 -0.54104 -0.15167 -0.1463 -0.067127 0.16939 0.11208 0.077919 0.05008 0.058745 -0.032913 0.092876 0.05738 -0.38418 0.19687 0.052034 0.059023 0.16565 -0.14044 0.14195 0.060577 -0.14817 0.1894 0.23836 0.15163 0.080471 0.22054 -0.45218 -0.041306 0.26977 -0.37161 0.017457 0.033002 -0.088735 -0.039117 0.023628 0.18631 0.025891 0.094708 0.053832 -0.018257 0.13462 -0.020028 0.10336 -0.18607 0.11924 0.040234 -0.18195 0.21032 0.013562 0.25446 -0.14237 0.12031 0.053939 -0.046798 0.23989 -0.18742 -0.18455 0.20075 0.14267 -0.29006 -0.16434 -0.062722 0.09056 0.22511 -0.057244 0.17975 -0.01558 0.20534 -0.015599 0.048674 0.04031 -0.54203 -0.29485 -0.022089 -0.10347 -0.037232 0.081842 
animals 0.18908 -0.041982 -0.021943 0.20287 0.073067 0.36829 -0.2609 -0.49206 -0.21038 -0.047638 -0.049512 0.27984 -0.24254 0.2394 -0.33594 -0.052778 -0.19506 -0.23492 -0.16344 -0.3381 0.58261 0.38605 0.066443 -0.90858 -0.21021 -0.2675 -0.20253 -0.04369 0.43677 0.11409 0.4793 0.15953 -0.077992 -0.056888 -0.19806 -0.38548 -0.13156 -0.076684 0.062751 -0.1054 -0.053061 0.34113 -0.018939 -0.16635 0.22548 0.017885 0.50288 -0.12304 0.16469 -0.5399 -0.21298 -0.488 -0.30176 -0.5099 0.11728 -0.17048 0.091532 0.46286 0.27184 -0.1157 0.33367 -0.15744 -0.1002 0.39258 -0.20905 -0.095149 -0.074261 0.010031 -0.31578 0.459 -0.061265 0.12261 0.56879 0.11404 0.21433 0.065448 -0.2587 0.4995 -0.7398 -0.31374 0.0040275 0.075546 -0.21882 -0.081134 -0.4768 -0.31961 0.2003 0.14577 0.28681 -0.44562 0.40973 0.11825 0.35693 -0.20224 -0.37279 -0.56895 0.12166 -0.27057 -0.37201 0.18114 
warm 0.35077 0.15838 -0.19248 0.51997 -0.017806 -0.10073 -0.32829 -0.17341 -0.024648 0.15788 -0.0032093 0.17059 0.059571 -0.11475 0.44688 -0.019218 -0.029025 -0.5152 -0.19265 -0.28323 -0.20658 0.76017 -0.19729 -0.3791 -0.46572 0.19833 0.13819 -0.012389 0.013588 -0.1782 0.21538 -0.034107 0.069158 0.090869 -0.089847 -0.47597 0.29335 0.05137 -0.36342 0.09026 0.20226 -0.245 -0.15232 -0.39677 0.083935 -0.081177 0.026852 0.058702 0.72928 -0.41787 -0.35246 0.42433 -0.54179 -0.14365 -0.35688 -0.38673 0.25892 -0.45517 0.40124 0.21127 0.41001 -0.38497 -0.07873 -0.061182 0.002339 0.12859 -0.039361 -0.41955 -0.096771 0.15362 -0.15943 -0.012581 0.24684 -0.13473 0.38964 -0.14084 0.31466 -0.31244 0.20952 -0.28921 0.28031 0.24687 -0.010079 0.14593 0.23721 0.20641 0.28155 -0.31285 0.033747 -0.27461 0.25531 0.062512 0.19879 -0.14842 -0.8967 0.12757 -0.43604 0.028215 0.18517 -0.071954 
f 0.3644 -0.13172 -0.18309 0.80802 -0.25147 -0.2968 -0.50992 -0.1491 -0.11682 -0.24695 -0.28478 0.42522 -0.074607 -0.29727 0.31777 0.047507 -0.2703 -0.41768 -0.77906 0.22139 0.11212 0.78951 0.18108 -0.5292 -0.74422 -0.37679 0.20093 -0.071319 -0.10883 -0.080599 -0.099846 0.039562 0.10872 0.10308 -0.12669 -0.70093 0.1909 -0.023415 0.31152 -0.37802 0.31848 -0.32713 -0.51316 -0.34343 0.41007 0.067524 -0.53108 -0.52185 0.40179 -0.46575 0.037535 0.31787 -0.38111 0.11875 -0.73358 -0.64474 -0.022342 -0.21269 0.25958 -0.23013 0.26242 -0.0074997 -0.072398 0.19793 0.09375 0.23504 -0.2116 -0.32999 -0.36125 -0.072061 -0.33509 0.057625 0.49055 -0.23868 0.4246 0.32594 0.29997 -0.2231 -0.14597 -0.16586 0.25548 0.062214 -0.63623 0.17615 -0.23079 0.28944 0.41378 -0.47111 0.1949 -0.083417 0.4245 -0.0007242 0.31464 -0.42896 -0.71835 0.021233 -0.36608 -0.13593 -0.15316 -0.3168 
then 0.033849 0.10312 0.011708 0.22767 -0.059886 -0.069225 -0.17844 -0.317 0.16716 0.11445 -0.049323 0.11462 -0.31874 0.10515 0.19246 -0.0072874 0.10095 -0.42488 -0.11363 -0.12011 0.163 0.40351 0.078872 -0.42992 -0.13616 -0.067611 -0.10843 0.063659 0.089038 -0.06522 -0.066826 0.062765 0.018903 0.041301 0.10627 -0.36903 0.10959 0.096776 -0.068393 0.28452 -0.10573 0.15491 0.13837 -0.11057 0.026629 0.18885 0.12139 0.069579 0.21756 -0.44034 -0.094062 0.36113 -0.39224 0.018944 -0.042048 -0.091374 -0.017516 -0.030025 0.21337 -0.039356 0.11541 -0.085318 -0.025335 0.047087 -0.0037102 0.10847 -0.2446 0.10708 0.05922 -0.13369 0.10334 -0.05673 0.162 -0.15983 0.031137 0.13055 -0.012466 0.13115 -0.22706 -0.23537 0.26692 0.080474 -0.28328 -0.13485 -0.0301 0.066788 0.20882 -0.31207 0.1208 0.035295 0.201 -0.010307 0.011464 -0.11261 -0.65078 -0.23401 -0.063974 -0.14855 0.027043 0.084846 
surface 0.53927 0.19165 -0.56073 0.67322 -0.056205 -0.27695 -0.057868 -0.34667 -0.15251 0.025842 -0.13492 0.28174 0.20255 -0.15401 0.48045 -0.075442 0.086391 -0.41083 -0.21732 -0.22926 -0.054459 0.54611 -0.52511 -0.32091 -0.68667 0.27345 0.31852 -0.46094 0.10575 -0.032482 0.090638 0.18281 0.31185 0.12132 -0.12749 -0.33296 0.13177 0.10723 -0.35315 0.19898 0.24945 -0.3847 -0.098305 -0.35804 0.17671 -0.27416 -0.15037 -0.013747 0.69276 -0.3179 -0.31634 0.17206 -0.85674 -0.12002 -0.62676 -0.51112 0.18703 -0.83688 0.45802 -0.1593 0.26839 -0.67203 -0.28833 -0.0043657 -0.15369 0.36463 -0.31419 -0.55164 -0.079405 0.48417 -0.33275 -0.16423 0.15709 -0.14223 0.34808 -0.14011 0.19615 -0.53808 -0.10866 -0.4962 0.17247 0.38784 -0.18137 0.56982 0.008828 0.25128 0.41286 -0.42727 0.17752 -0.32655 0.30856 -0.22826 0.17526 -0.072823 -0.95283 -0.12958 -0.6406 0.048811 -0.16671 -0.10763 
death 0.53503 0.099528 0.065016 0.22166 -0.58973 0.33665 0.14888 -0.085657 -0.09728 0.071185 -0.29227 -0.12819 -0.203 0.24887 0.19044 0.093026 0.10527 -0.15745 -0.56689 -0.40801 -0.0057892 0.59383 -0.13159 -0.32582 0.043145 0.14219 0.19386 0.58391 -0.10506 0.02896 -0.093507 0.06875 0.037105 0.14513 0.039319 -0.43879 0.25738 0.19097 0.038538 0.32636 -0.47467 0.049902 0.3008 0.063437 0.32576 0.39219 -0.13314 -0.024677 0.33354 -0.1925 -0.13215 0.40104 -0.408 0.077512 0.27338 0.33407 -0.013481 0.11654 0.37983 -0.096249 -0.40485 -0.12878 -0.25598 0.17506 -0.33299 -0.011333 -0.23879 -0.019793 -0.047411 -0.25098 0.74991 0.0097893 0.45745 -0.19723 0.30422 0.353 -0.12531 0.5647 -0.097627 -0.15134 -0.11085 0.080911 -0.1598 0.15918 0.17965 0.011577 0.16164 -0.54162 0.034173 0.095741 -0.051325 -0.31618 -0.090508 -0.339 -0.071728 -0.20726 0.21953 -0.094366 -0.34188 0.40306 
shifting 0.15218 -0.012712 -0.12413 0.18587 0.099192 0.037149 -0.1958 -0.082563 -0.13359 -0.039801 -0.041793 0.092059 0.19912 -0.021278 0.33561 0.19202 0.031575 -0.35747 -0.24856 -0.34828 -0.020066 0.62122 0.014568 -0.33995 -0.33223 0.11786 0.12734 0.10445 -0.064889 -0.18697 -0.12721 -0.040929 0.057162 0.19307 -0.19876 -0.47661 0.089425 0.14199 -0.28786 0.19847 0.081473 -0.19431 -0.05947 -0.12142 0.042007 -0.10759 0.058614 -0.064212 0.43199 -0.043235 -0.13636 0.37126 -0.24183 -0.083752 -0.15885 -0.12923 0.25661 -0.21426 0.27506 -0.068692 -0.016084 -0.13606 0.097804 -0.11535 0.031569 0.020471 -0.1296 -0.2034 -0.029916 0.079707 0.062722 -0.077027 0.20072 -0.10415 0.13247 0.035346 0.18405 0.00048808 -0.091434 -0.10027 0.25876 0.22643 0.041805 0.22252 -0.12094 -0.14636 0.20083 -0.42587 -0.17496 -0.33719 0.19463 0.053236 0.20646 -0.42536 -0.45247 0.0263 -0.17352 0.0079558 -0.072084 0.069225 
zooxanthallae 0.22861 0.014723 0.20774 0.41595 -0.14621 0.22124 -0.21051 -0.38783 -0.175 0.25759 -0.4272 0.13132 -0.33487 0.087543 -0.037031 -0.10043 0.0088355 -0.13998 -0.52282 -0.27582 0.2099 0.50356 0.018804 -0.17019 0.099325 0.23067 0.11294 0.34833 0.15748 -0.098986 -0.0041636 0.20356 -0.12 0.12993 -0.024188 -0.5061 -0.14499 0.0061195 0.01571 0.33367 -0.14926 0.36266 0.26573 -0.087953 0.35026 0.29968 0.074786 0.076215 0.27008 -0.29938 0.16565 0.16703 -0.30746 -0.22849 0.23194 -0.12355 -0.10609 0.2495 0.4156 0.023691 -0.11631 -0.21913 0.14976 -0.066046 -0.14721 0.16591 0.12628 0.2601 -0.091631 -0.098513 0.28956 -0.060172 0.47429 -0.0090896 0.23616 0.15781 -0.074196 0.27263 -0.28053 -0.36241 0.11593 -0.20951 -0.30241 -0.018827 -0.28016 -0.012851 0.032488 -0.3561 0.1718 -0.00070699 0.2624 0.024211 -0.13913 -0.51141 -0.15955 -0.13357 0.2061 -0.17969 -0.082077 0.35385 
carbon 0.20833 -0.035807 0.12047 0.36654 -0.38025 0.02149 -0.69445 -0.50036 0.19115 -0.13652 -0.391 -0.029767 -0.32141 -0.33498 0.28768 -0.19107 0.18881 -0.31093 -0.32841 -0.2418 -0.032877 0.23397 -0.19718 -0.39927 -0.24497 -0.36228 0.22726 0.23077 -0.104 0.011913 -0.015135 0.31788 0.00066598 0.23356 0.075399 -0.45184 0.33837 0.16435 0.23981 -0.17724 -0.22572 0.10647 -0.041268 0.060334 0.48503 -0.018589 -0.037718 0.077738 0.47138 -0.34771 0.16882 0.27181 -0.86629 0.25326 -0.23064 -0.30172 -0.22976 -0.021044 0.39276 0.14581 0.1441 0.084535 0.0431 0.40362 -0.056454 0.36786 -0.10866 0.20702 0.029887 -0.16561 -0.26414 0.23111 0.38841 0.13312 0.10921 0.31409 -0.1758 0.0045108 0.020708 -0.4859 -0.043015 0.14191 -0.66716 -5.398e-05 -0.080858 0.14837 0.22666 -0.22158 0.34302 0.16584 0.24815 -0.2388 -0.19163 0.0024922 -0.80353 -0.37736 -0.2748 -0.19774 -0.042973 -0.39718 
